tree
version=v4
num_class=1
num_tree_per_iteration=1
label_index=0
max_feature_idx=13
objective=binary sigmoid:1
feature_names=age workclass fnlwgt education education-num marital-status occupation relationship race sex capital-gain capital-loss hours-per-week native-country
feature_infos=[17:90] -1:4:6:2:0:7:5:1:8 [12285:1484705] -1:11:15:9:12:8:1:7:0:5:14:6:10:2:4:3 [1:16] -1:2:4:0:5:6:3 -1:10:3:4:1:12:8:7:0:14:6:5:13:11:9 -1:0:1:3:4:5:2 -1:4:2:1:0 -1:1:0 [0:99999] [0:4356] [1:99] -1:39:26:0:30:11:2:33:8:19:5:9:23:35:6:40:22:3:4:13:24:31:36:14:20:32:27:29:10:7:12:21:1:38:25:28:41:37:17:18:16:34
tree_sizes=3298 3365 3346 3334 3350 3334 3370 3350 3355 3344 3349 3344 3349 3364 3348 3305 3410 3347 3331 3340 3330 3377 3335 3334 3314 3356 3380 3335 3349 3364 3313 3357 3340 3381 3325 3305 3304 3327 3350 3327 3318 3318 3339 3331 3348 3338 3290 3313 3307 3303 3375 3311 3359 3366 3357 3313 3319 3317 3378 3337 3360 3346 3349 3337 3322 3357 3392 3317 3389 3293 3376 3329 3349 3379 3432 3390 3370 3361 3373 3355 3372 3398 3369 3330 3401 3375 3316 3349 3311 3325 3369 3408 3404 3375 3400 3352 3349 3348 3337 3330 3380 3398 3393 3358 3366 3372 3351 3384 3397 3352 3364 3357 3337 3372 3358 3419

Tree=0
num_leaves=31
num_cat=6
split_feature=7 10 6 4 10 4 4 12 10 12 11 4 4 11 11 4 12 11 10 10 6 12 4 11 9 6 6 11 11 12
split_gain=12142.7 2376.23 2092.75 827.985 677.777 458.442 409.413 304.186 229.34 217.735 192.308 117.394 113.237 109.658 100.593 96.0501 163.152 74.7785 71.0223 75.3022 68.1867 67.2551 58.7736 52.9429 52.4957 51.2748 49.0209 47.373 45.4875 43.774
threshold=0 7073.5000000000009 1 12.500000000000002 5036.5000000000009 12.500000000000002 8.5000000000000018 43.500000000000007 5036.5000000000009 47.500000000000007 1789.0000000000002 7.5000000000000009 13.500000000000002 2218.5000000000005 1789.0000000000002 10.500000000000002 35.500000000000007 2001.5000000000002 5036.5000000000009 3120.0000000000005 2 39.500000000000007 14.500000000000002 1568.5000000000002 3 4 5 1521.5000000000002 1789.0000000000002 45.500000000000007
decision_type=1 2 9 2 2 2 2 2 2 2 2 2 2 2 2 2 2 2 2 2 9 2 2 2 1 9 9 2 2 2
left_child=2 3 5 9 6 8 25 12 11 13 15 -1 27 -2 21 16 -8 -12 19 28 -11 -13 24 26 -9 29 -18 -5 -7 -4
right_child=1 -3 4 7 -6 18 10 22 -10 20 17 14 -14 -15 -16 -17 23 -19 -20 -21 -22 -23 -24 -25 -26 -27 -28 -29 -30 -31
leaf_value=-1.1155055695378795 -1.2019125154766892 -0.94453436066119989 -1.1421888495348069 -1.1731771868856637 -0.94459965165991688 -0.97503058659674902 -1.1555161637062601 -1.0617535322158018 -0.94252040002303861 -1.1271798211660276 -0.94464106996307873 -1.0631076030316886 -1.101906021389657 -1.0310330108316257 -0.95693822027274034 -1.0411336612984345 -1.1208336538402603 -1.094027023939047 -0.94129066366182301 -1.1069317599146127 -1.178969256954276 -1.0171571972376168 -1.0081680271869393 -1.2146447967868161 -1.1206641053383521 -1.1787439082805544 -1.0669082006961814 -1.0646816016754574 -0.94335782607717011 -1.0706857475312856
leaf_weight=31.81773678958416 1474.0952763855457 115.61352550983429 97.954252272844315 232.00943650305271 99.288137957453728 826.06833370029926 66.684820741415024 101.09466129541397 103.7457632869482 138.18061861395836 42.057897314429283 90.549244418740273 86.736759945750237 9.4488063603639585 63.037145912647247 190.88717970252037 84.444138795137405 10.460766315460203 231.36813528835773 10.249781042337416 101.29795300960541 660.4660480171442 30.554389670491219 6.5796630978584281 60.415543034672737 69.847035318613052 579.48617807030678 10.517200022935866 131.39060780405998 27.389610573649406
leaf_count=131 7809 206 439 1138 177 1816 311 342 182 588 75 308 341 28 123 592 350 40 402 41 509 1832 81 36 253 352 1990 36 232 96
internal_value=-1.14879 -1.16552 -1.01814 -1.17698 -1.07066 -0.987481 -1.08064 -1.12177 -1.01268 -1.19368 -1.06748 -1.02129 -1.15094 -1.20082 -1.01761 -1.07274 -1.08093 -0.974396 -0.966177 -0.972127 -1.14944 -1.0227 -1.07176 -1.07351 -1.08379 -1.14677 -1.07211 -1.16847 -0.970684 -1.12821
internal_weight=0 2359.96 3423.77 2244.35 1275.08 2148.69 1175.79 521.328 949.616 1723.02 980.601 845.87 329.263 1483.54 814.052 928.082 737.195 52.5187 1199.08 967.709 239.479 751.015 192.065 670.51 161.51 195.191 663.93 242.527 957.459 125.344
internal_count=20856 11331 9525 11125 4458 5067 4281 2191 2576 8934 3394 2394 1515 7837 2263 3279 2687 115 2491 2089 1097 2140 676 2376 595 887 2340 1174 2048 535
cat_boundaries=0 1 2 3 4 5 6
cat_threshold=33 15378 23576 2 16520 288
is_linear=0
shrinkage=1


Tree=1
num_leaves=31
num_cat=3
split_feature=7 10 6 4 10 0 4 4 12 0 0 12 12 11 10 0 4 4 10 4 11 4 0 6 0 12 10 10 0 11
split_gain=9979.24 2011.9 1558.65 728.768 511.916 380.364 343.404 325.696 201.912 194.569 164.683 139.175 106.299 98.9207 96.3528 94.9293 81.8333 68.75 68.2992 64.56 64.0275 61.9214 59.2225 61.0852 56.092 55.9021 55.8186 84.5328 51.4161 50.3801
threshold=0 4668.5000000000009 1 12.500000000000002 5036.5000000000009 30.500000000000004 8.5000000000000018 12.500000000000002 47.500000000000007 36.500000000000007 33.500000000000007 43.500000000000007 35.500000000000007 2218.5000000000005 5036.5000000000009 38.500000000000007 7.5000000000000009 14.500000000000002 5036.5000000000009 9.5000000000000018 1789.0000000000002 10.500000000000002 32.500000000000007 2 26.500000000000004 44.500000000000007 7073.5000000000009 5316.5000000000009 24.500000000000004 1834.5000000000002
decision_type=1 2 9 2 2 2 2 2 2 2 2 2 2 2 2 2 2 2 2 2 2 2 2 9 2 2 2 2 2 2
left_child=2 3 7 8 6 25 -4 10 13 19 18 17 21 22 16 -10 -12 -7 28 29 -14 -11 -2 -24 -9 -5 27 -3 -1 -8
right_child=1 26 4 5 -6 11 9 24 15 12 14 -13 20 -15 -16 -17 -18 -19 -20 -21 -22 -23 23 -25 -26 -27 -28 -29 -30 -31
leaf_value=-0.016903224324461723 -0.061593850620961454 0.16070498488312163 0.0018266035133095667 -0.053222968359400005 0.17539317144842015 0.017331606648478468 0.017722921653720962 0.082606149979340598 -0.025723772750323528 -0.00056533942290167656 0.040405695843071382 0.092742197849791708 0.091810466328970552 0.10534972503642813 0.17680112780603799 0.039711486975969879 0.12749632274047473 0.11060507638538378 0.1783220982369037 0.067247049100769049 0.15513791981489972 0.093504283397692622 -0.0034772250838152868 -0.047537977547482756 0.15982909467277551 0.0081850169874222983 0.17544407272829199 -0.065605880987554613 0.078517582059177471 0.15373428288088403
leaf_weight=15.470171779394148 780.0876237154007 11.82905136048794 195.53852577507496 126.80777126550674 109.51166562736034 176.27633710205555 176.86355195939541 23.953186810016632 149.46514263749123 48.353618949651718 28.060470595955849 141.0470085144043 569.37799380719662 10.017876744270323 98.621249601244926 88.094694092869759 695.91992872953415 22.249466776847839 15.911677479743956 148.89094522595406 42.922645524144173 27.410473614931107 105.61936220526695 541.09657225012779 1285.9202026277781 52.365533962845802 127.52170777320862 6.3365770131349555 161.43913704156876 7.0810412764549246
leaf_count=69 4353 28 887 677 177 764 730 71 737 222 110 434 1755 28 157 354 1709 65 25 507 84 82 506 2922 2420 222 206 35 506 14
internal_value=0 -0.0160953 0.116169 -0.0281165 0.0713124 0.0236659 0.0625286 0.141333 -0.0441594 0.0741552 0.120688 0.0547661 0.0893367 -0.0512195 0.130437 -0.00145831 0.124121 0.0277851 0.0790978 0.0427707 0.0962498 0.0334678 -0.0523188 -0.041131 0.158417 -0.0352758 0.163763 0.0817627 0.0701733 0.0229587
internal_weight=0 2338.81 3651.25 2193.13 1325.95 518.746 1216.44 2325.3 1674.38 1020.9 1015.42 339.573 688.065 1436.82 822.602 237.56 723.98 198.526 192.821 332.836 612.301 75.7641 1426.8 646.716 1309.87 179.173 145.687 18.1656 176.909 183.945
internal_count=20856 11331 9525 11062 4458 2162 4281 5067 8900 3394 2576 1263 2143 7809 1976 1091 1819 829 600 1251 1839 304 7781 3428 2491 899 269 63 575 744
cat_boundaries=0 1 2 3
cat_threshold=33 15378 3088
is_linear=0
shrinkage=0.05


Tree=2
num_leaves=31
num_cat=5
split_feature=5 10 6 4 10 0 4 4 12 0 12 0 12 0 6 10 4 11 0 0 12 11 4 0 6 4 11 6 10 10
split_gain=8343.86 1699.43 1259.57 673.61 417.155 342.235 295.022 251.471 184.112 175.94 150.149 138.884 93.6878 86.4974 77.6642 73.7922 70.054 65.6163 61.7368 56.3176 68.3054 55.8676 55.1842 54.2324 53.9629 52.4488 52.3953 51.4471 48.8387 70.7701
threshold=0 4668.5000000000009 1 12.500000000000002 5036.5000000000009 27.500000000000004 8.5000000000000018 12.500000000000002 41.500000000000007 35.500000000000007 43.500000000000007 33.500000000000007 35.500000000000007 33.500000000000007 2 5036.5000000000009 9.5000000000000018 2218.5000000000005 23.500000000000004 25.500000000000004 47.500000000000007 1789.0000000000002 9.5000000000000018 34.500000000000007 3 10.500000000000002 1789.0000000000002 4 7364.0000000000009 4826.0000000000009
decision_type=9 2 9 2 2 2 2 2 2 2 2 2 2 2 9 2 2 2 2 2 2 2 2 2 9 2 2 9 2 2
left_child=2 3 7 8 6 -5 24 11 17 19 14 18 25 -10 23 16 26 -2 -1 20 -8 27 -21 -7 -4 -11 -13 -14 29 -3
right_child=1 28 4 5 -6 10 9 -9 13 12 -12 15 21 -15 -16 -17 -18 -19 -20 22 -22 -23 -24 -25 -26 -27 -28 -29 -30 -31
leaf_value=-0.040119155167012838 -0.053184026816655253 0.18312640434117552 0.027176302332219401 -0.051201380980789406 0.15454483736816368 -0.015760924781118277 -0.057083717706143469 0.14040648718563359 -0.037914033933189789 -0.0024562264642694186 0.079585715913736227 0.087781756544274323 0.031552558689038133 0.013785918797044973 -0.028253342824740325 0.15611056722967473 0.12450958678515073 0.09254165795740911 0.077969195146396969 0.023593758760673877 0.087330272981529608 0.13779617152957616 0.069113428875453464 0.052552643269793732 -0.022214814655735594 0.081946123968952164 0.15838336859580984 0.088075538963745453 0.15529018168008224 -0.019399711189567136
leaf_weight=11.744135737419127 1279.2698998302221 7.5110293030738857 94.976077169179916 122.81619422137737 119.13070812821388 37.905411928892136 30.606061056256294 1405.2308562099934 150.93368549644947 49.801366984844208 171.34404614567757 297.7277634292841 85.420649379491806 174.36451843380928 61.962787255644798 105.89777833223343 444.84080240130424 7.7715923488140097 192.25281818211079 148.97038388252258 11.178549617528914 48.835229486227036 120.39011080563068 124.39562995731831 106.92123848199844 29.197551742196083 28.822685763239861 540.02515032887459 134.61877465248108 10.132341027259825
leaf_count=58 7211 12 388 662 180 183 156 2510 793 230 521 817 317 768 311 157 974 21 563 593 34 90 386 463 530 85 47 1545 202 49
internal_value=0 -0.0162656 0.104232 -0.0278686 0.0646278 0.0217098 0.0566792 0.125952 -0.0438098 0.0671899 0.044345 0.108332 0.0802545 -0.0102021 0.0174201 0.116973 0.1116 -0.0523041 0.0711708 0.0355605 -0.0184489 0.0862902 0.0439387 0.0344739 0.00126539 0.0287384 0.0940133 0.0822686 0.145039 0.0668185
internal_weight=0 2283.03 3871.97 2130.76 1385.45 518.424 1266.32 2486.52 1612.34 1064.43 395.608 1081.29 753.28 325.298 224.264 877.289 771.391 1287.04 203.997 311.145 41.7846 674.281 269.36 162.301 201.897 78.9989 326.55 625.446 152.262 17.6434
internal_count=20856 11196 9660 10933 4534 2140 4354 5126 8793 3436 1478 2616 2267 1561 957 1995 1838 7232 621 1169 190 1952 979 646 918 315 864 1862 263 61
cat_boundaries=0 1 2 3 4 5
cat_threshold=4 15378 5136 16392 288
is_linear=0
shrinkage=0.05


Tree=3
num_leaves=31
num_cat=6
split_feature=7 4 4 0 4 12 4 0 0 12 0 4 6 12 12 0 9 0 11 0 11 0 12 11 9 6 12 0 6 2
split_gain=7123.69 1003.91 996.03 391.718 270.003 266.048 203.467 152.154 126.349 117.304 107.145 107.043 99.6264 84.7944 83.4949 68.0035 55.4953 51.4217 47.508 44.9079 42.7953 41.3946 38.9342 37.2634 35.7365 34.9122 34.8842 34.026 32.5923 32.5057
threshold=0 12.500000000000002 9.5000000000000018 30.500000000000004 7.5000000000000009 41.500000000000007 12.500000000000002 35.500000000000007 35.500000000000007 34.500000000000007 33.500000000000007 14.500000000000002 1 42.500000000000007 44.500000000000007 35.500000000000007 2 25.500000000000004 1881.5000000000002 25.500000000000004 1834.5000000000002 24.500000000000004 31.500000000000004 1789.0000000000002 3 4 43.500000000000007 24.500000000000004 5 164125.00000000003
decision_type=1 2 2 2 2 2 2 2 2 2 2 2 9 2 2 2 1 2 2 2 2 2 2 2 1 9 2 2 9 2
left_child=2 5 4 14 18 12 8 17 21 24 -7 13 15 28 -3 -2 25 -6 26 -8 -19 -4 -21 -11 -9 -12 -1 -16 -5 -23
right_child=1 3 6 11 7 10 19 9 -10 23 16 -13 -14 -15 27 -17 -18 20 -20 22 -22 29 -24 -25 -26 -27 -28 -29 -30 -31
leaf_value=-0.0053446548166594526 -0.04233968459255822 -0.045587988805900134 0.0021544124589540745 0.04359424338602505 -0.021407244136606555 -0.027938806284940554 0.042253996143868044 -0.017130624310020926 0.10663765979365734 0.084055731463491878 0.058890095858936467 0.12163554271399404 -0.051521055944366081 0.080647939601946453 -0.066228522528379422 0.016423288570139399 -0.0069763147400976168 0.042302120980696876 0.1311151297614799 0.093355221846934289 0.1359443498787585 0.050374234552392351 0.12733254950977721 0.12898139462269145 0.070941122281620278 -0.0079714373858202157 0.039624233126610869 0.040488896693032711 -0.0022867396989879429 0.087217946211502875
leaf_weight=161.83593057096004 93.310337200760841 124.35258705914021 22.444914743304253 148.47039303183556 30.790755093097687 157.0280564725399 16.39227756857872 36.806673899292946 779.93805457651615 701.31316803395748 96.202235996723175 69.144305840134621 1108.6169910430908 164.84990157186985 8.6901419907808286 104.22857432067394 74.033075034618378 246.72375294566154 7.9412700384855262 89.298740938305855 12.835677519440649 97.448759436607361 1510.0163545757532 49.40839883685112 16.764064952731133 28.553067103028297 58.794164538383484 53.168135270476341 58.673218920826912 155.22079116106033
leaf_count=734 520 684 94 537 142 812 50 164 1724 1858 332 144 6404 448 47 476 340 854 20 202 23 308 2587 84 51 135 222 189 263 408
internal_value=0 -0.0149884 0.0956248 0.0388377 0.0603905 -0.0353965 0.113439 0.0707113 0.0963611 0.0819116 0.00293208 0.0645072 -0.0458378 0.0538885 -0.021974 -0.0107881 0.0273178 0.0396856 0.0109635 0.124591 0.0469329 0.0672277 0.125435 0.0870125 0.01043 0.0476688 0.00663879 0.0254967 0.0325926 0.0730082
internal_weight=0 2289.32 3993.97 627.349 1323.21 1661.97 2670.76 1094.64 1055.05 804.292 355.816 441.138 1306.16 371.994 186.211 197.539 198.788 290.35 228.571 1615.71 259.559 275.114 1599.32 750.722 53.5707 124.755 220.63 61.8583 207.144 252.67
internal_count=20856 11331 9525 2312 4152 9019 5373 3176 2534 2157 1619 1392 7400 1248 920 996 807 1019 976 2839 877 810 2789 1942 215 467 956 236 800 716
cat_boundaries=0 1 2 3 4 5 6
cat_threshold=33 11280 2 2 21530 5136
is_linear=0
shrinkage=0.05


Tree=4
num_leaves=31
num_cat=6
split_feature=7 10 6 4 10 0 4 12 10 4 0 0 4 6 0 12 0 6 4 12 0 12 6 6 10 0 4 12 10 10
split_gain=6124.37 1451.38 884.769 571.606 325.304 265.551 208.264 177.726 159.305 153.513 113.803 95.7438 91.1928 82.4575 74.7783 65.4171 65.3774 62.0244 48.3464 46.0744 60.9727 45.8633 43.6319 42.8831 42.37 37.3071 35.8778 33.8072 33.4504 45.5162
threshold=0 4668.5000000000009 1 12.500000000000002 5036.5000000000009 30.500000000000004 8.5000000000000018 47.500000000000007 5036.5000000000009 11.500000000000002 36.500000000000007 33.500000000000007 14.500000000000002 2 38.500000000000007 34.500000000000007 32.500000000000007 3 7.5000000000000009 48.500000000000007 25.500000000000004 44.500000000000007 4 5 3120.0000000000005 23.500000000000004 10.500000000000002 39.500000000000007 7073.5000000000009 4826.0000000000009
decision_type=1 2 9 2 2 2 2 2 2 2 2 2 2 9 2 2 2 9 2 2 2 2 9 9 2 2 2 2 2 2
left_child=2 3 8 7 6 21 23 16 9 11 19 25 13 -7 -9 26 -2 -18 -13 20 -8 -5 -17 -4 -11 -1 -12 -20 29 -3
right_child=1 28 4 5 -6 12 10 14 -10 24 15 18 -14 -15 -16 22 17 -19 27 -21 -22 -23 -24 -25 -26 -27 -28 -29 -30 -31
leaf_value=-0.048891388382506368 -0.05839450978964849 0.15668629195772685 0.017532304517635183 -0.050160486873218071 0.1321952769965766 0.062198602360562627 -0.045330974331061445 -0.023443348100403501 0.13364117614562032 0.11230563228933926 -0.010342343603990056 0.030386471675497968 0.10303331905657678 0.0090484817811550457 0.034293508943893047 0.028959847937182395 -0.010006644073962108 -0.046408609507384596 0.065573276494279659 0.063134312062058301 0.031002320385530826 0.0057162226697074457 0.077025304587613794 -0.028733388871862386 0.028441675374081283 0.056522632367976181 0.063966217942053913 0.098984848425605454 0.1364997690368745 0.0023180780223298666
leaf_weight=8.8492674976587278 714.37496511638165 8.2145574092865008 128.82704602181911 117.33325764536858 126.6787942647934 124.25680834054947 29.503866478800774 144.54501673579216 428.69088518619537 1304.0099923759699 39.455552086234093 30.127127081155777 53.685139670968056 187.92466366291046 91.630820006132126 96.455419465899467 188.35218589007854 423.5742009729147 85.880796119570732 94.356279820203781 230.86342689394951 53.453560367226601 606.1001351326704 68.370181694626808 15.236768558621405 162.90625810623169 27.611406460404396 639.30654735863209 145.51948954164982 11.404992535710333
leaf_count=45 4360 12 535 677 177 382 149 737 584 2233 183 110 119 762 354 329 964 2485 229 287 815 222 1555 352 47 479 76 1340 206 51
internal_value=0 -0.0144215 0.0879161 -0.0257132 0.055274 0.0188071 0.0483189 -0.0410043 0.105317 0.10038 0.0566315 0.0847874 0.0428376 0.0324859 -0.00104277 0.0674309 -0.0481203 -0.0361259 0.0924497 0.0332004 0.0223525 -0.032672 0.0719349 0.000923528 0.111337 0.0510914 0.0202504 0.0950281 0.128237 0.0669509
internal_weight=0 2264.27 4123.23 2099.13 1448.22 536.653 1321.54 1562.48 2675.01 2246.32 1124.35 927.07 365.867 312.181 236.176 769.623 1326.3 611.926 755.314 354.724 260.367 170.787 702.556 197.197 1319.25 171.756 67.067 725.187 165.139 19.6195
internal_count=20856 11331 9525 11062 4458 2162 4281 8900 5067 4483 3394 2203 1263 1144 1091 2143 7809 3449 1679 1251 964 899 1884 887 2280 524 259 1569 269 63
cat_boundaries=0 1 2 3 4 5 6
cat_threshold=33 15378 4112 11288 288 16520
is_linear=0
shrinkage=0.05


Tree=5
num_leaves=31
num_cat=8
split_feature=5 10 4 4 10 0 6 12 10 12 6 0 12 4 0 0 6 6 4 0 0 12 6 0 10 6 9 10 12 0
split_gain=5393.37 1291.85 792.918 584.102 270.993 253.29 201.485 165.576 151.959 145.551 133.023 130.608 94.6985 66.5015 63.5563 59.8198 67.1211 59.4213 57.3499 55.9959 52.275 50.2493 49.1926 36.6542 35.7223 35.5614 35.124 32.4424 31.3983 30.4958
threshold=0 4668.5000000000009 9.5000000000000018 12.500000000000002 5036.5000000000009 27.500000000000004 1 43.500000000000007 5036.5000000000009 40.500000000000007 2 36.500000000000007 37.500000000000007 5.5000000000000009 29.500000000000004 33.500000000000007 3 4 6.5000000000000009 28.500000000000004 35.500000000000007 51.500000000000007 5 41.500000000000007 3120.0000000000005 6 7 3120.0000000000005 37.500000000000007 24.500000000000004
decision_type=9 2 2 2 2 2 9 2 2 2 9 2 2 2 2 2 9 9 2 2 2 2 9 2 2 9 1 2 2 2
left_child=2 3 4 9 6 -5 18 17 10 15 14 21 -13 -14 -4 -2 -17 23 -1 -11 29 25 26 -7 -16 -8 -21 -22 -20 -12
right_child=1 -3 8 5 -6 7 11 -9 -10 19 20 12 13 -15 24 16 -18 -19 28 22 27 -23 -24 -25 -26 -27 -28 -29 -30 -31
leaf_value=-0.045930388925265755 -0.059044378686472367 0.11936664173408085 0.066594586348973556 -0.047949548990823772 0.12428363819642584 -0.00045086020969679707 -0.021893753132222842 0.071369155077579252 0.12284284233450829 -0.044352876573790272 -0.013353932954142778 0.005986147718988151 0.017468007917941789 0.075396547004725117 0.1051433310743024 -0.0072966571885928616 -0.048105872525061391 -0.031407161246813697 -0.027115713454563081 0.037006414382905424 0.080993591523844707 0.075672204677088933 -0.026816666755406261 0.045725186221250838 0.034978856350516729 0.025423365499414 -0.017406338287760323 -0.010634427000457284 0.024575478503951663 0.055849131138509416
leaf_weight=50.475131556391716 677.06313972175121 166.85527645051479 120.54962499439716 110.45644593238831 115.68874923884869 79.931222885847092 42.205717653036118 192.29897764325142 475.5537149310112 89.888210564851761 17.292725265026093 61.510287299752235 53.827974364161491 622.42957796156406 1512.5806652605534 160.69611544907093 352.85993221402168 59.900158181786537 36.715549439191818 100.43449600040913 534.75021763145924 43.868857964873314 81.558432057499886 92.955396965146065 18.360509663820267 213.450912758708 42.085935607552528 9.8381535261869413 146.9859670996666 200.47174373269081
leaf_count=275 4297 258 288 637 156 348 194 516 629 511 77 236 219 1541 2559 832 2155 309 183 399 1241 121 425 316 53 758 202 36 525 569
internal_value=0 -0.0143312 0.0819002 -0.0253362 0.0510191 0.0195071 0.0443529 0.0370354 0.0970093 -0.0412977 0.0919198 0.0535619 0.0653831 0.0707856 0.100938 -0.0492836 -0.0364151 0.00867317 0.00122182 -0.0110137 0.0701389 0.0262333 0.00236018 0.0230436 0.104302 0.01775 0.0195656 0.0793383 0.0142442 0.0503537
internal_weight=0 2206.98 4276.56 2040.13 1387.16 535.542 1271.47 425.086 2889.4 1504.59 2413.84 1037.29 737.768 676.258 1651.49 1190.62 513.556 232.787 234.177 313.967 762.353 299.525 224.079 172.887 1530.94 255.657 142.52 544.588 183.702 217.764
internal_count=20865 11205 9660 10947 4208 2126 4052 1489 5452 8821 4823 3069 1996 1760 2900 7284 2987 973 983 1537 1923 1073 1026 664 2612 952 601 1277 708 646
cat_boundaries=0 1 2 3 4 5 6 7 8
cat_threshold=4 353 13328 11288 7184 29720 128 2
is_linear=0
shrinkage=0.05


Tree=6
num_leaves=31
num_cat=4
split_feature=5 10 4 4 10 0 3 12 12 10 0 4 12 0 11 11 0 0 0 0 11 11 12 12 2 2 9 12 4 9
split_gain=4720.62 1150.21 687.413 542.262 236.855 228.563 183.977 143.532 139.828 135.964 124.801 117.008 109.85 92.771 78.8629 68.3788 53.2328 52.0096 47.5426 47.0887 44.816 38.8855 37.2016 31.6807 27.8757 27.2238 26.613 25.352 24.9123 39.8712
threshold=0 4668.5000000000009 9.5000000000000018 12.500000000000002 5036.5000000000009 27.500000000000004 1 43.500000000000007 40.500000000000007 5036.5000000000009 28.500000000000004 12.500000000000002 37.500000000000007 29.500000000000004 1789.0000000000002 2218.5000000000005 33.500000000000007 28.500000000000004 36.500000000000007 40.500000000000007 1789.0000000000002 1834.5000000000002 34.500000000000007 41.500000000000007 212208.50000000003 116619.50000000001 2 34.500000000000007 9.5000000000000018 3
decision_type=9 2 2 2 2 2 9 2 2 2 2 2 2 2 2 2 2 2 2 2 2 2 2 2 2 2 1 2 2 1
left_child=2 3 4 8 6 -5 10 19 15 11 23 13 -12 24 18 16 -2 -10 -14 -7 25 22 -13 -1 -4 -15 -19 -27 -18 -30
right_child=1 -3 9 5 -6 7 -8 -9 17 -11 12 21 14 20 -16 -17 28 26 -20 -21 -22 -23 -24 -25 -26 27 -28 -29 29 -31
leaf_value=-0.028374621416885105 -0.058692604439424645 0.11051144308253008 0.0066282371307852077 -0.046870282944535845 0.11544368963062204 -0.016816632333029734 -0.0081179358135599552 0.066054361539026954 -0.043259472567890901 0.11437621642617404 0.0029625989094456285 0.060081469014284308 0.034061446959394094 0.059397471327593869 0.11284789888905014 0.10471522472669859 -0.045736727213439854 0.0151591223197795 0.061700934101986266 0.028329566669758968 0.11681425796693233 0.11564718130679517 0.093851948916381489 0.033430287469943622 0.058278308500470916 0.04258911200912139 -0.020656828567488184 0.082446385469887307 0.0097457039806914288 -0.038922264657761711
leaf_weight=59.80433614552021 650.68791027367115 171.09491391479969 61.573928862810135 107.42736838757992 118.24755093455315 104.52315518260002 167.8344239294529 197.24789707362652 87.610552683472633 484.95117279887199 95.740591436624527 87.786725535988808 202.80791048705578 218.86773526668549 63.816815003752708 7.254171594977378 308.13339692354202 142.98637209832668 668.15986099839211 129.09432476758957 67.926976054906845 191.85914307832718 1147.9980650395155 31.737834826111794 45.372718065977097 42.727593377232552 81.387745708227158 602.18010683357716 63.14097261428833 126.18875533342361
leaf_count=282 4291 258 224 637 156 496 766 516 511 629 391 202 677 545 99 19 1898 617 1728 477 99 257 1961 109 128 125 409 1282 330 746
internal_value=0 -0.0138663 0.0762844 -0.0245455 0.0477155 0.0183792 0.0415068 0.0346478 -0.0402918 0.0901741 0.048569 0.0854152 0.0539718 0.072647 0.0591961 -0.0483122 -0.049279 -0.0105891 0.055265 0.00813064 0.0777097 0.0947044 0.091453 -0.00694675 0.0285411 0.0746346 0.00216752 0.0798057 -0.036966 -0.0226916
internal_weight=0 2176.78 4359.39 2005.68 1408.15 538.293 1289.9 430.865 1467.39 2951.24 1122.07 2466.29 1030.53 1038.65 934.785 1155.41 1148.15 311.985 870.968 233.617 931.702 1427.64 1235.78 91.5422 106.947 863.775 224.374 644.908 497.463 189.33
internal_count=20865 11205 9660 10947 4208 2126 4052 1489 8821 5452 3286 4823 2895 2403 2504 7284 7265 1537 2405 973 2051 2420 2163 391 352 1952 1026 1407 2974 1076
cat_boundaries=0 1 2 3 4
cat_threshold=4 2053 2 2
is_linear=0
shrinkage=0.05


Tree=7
num_leaves=31
num_cat=7
split_feature=5 10 6 4 10 0 4 12 12 0 4 0 6 11 10 6 0 6 6 12 0 12 0 6 10 10 11 4 12 4
split_gain=4155.96 1030.34 626.84 503.807 241.701 206.86 165.429 134.597 124.918 108.736 108.374 74.144 70.227 61.9366 53.7667 53.56 52.9936 66.8237 51.6166 48.9947 47.8507 41.7112 38.2327 33.9243 33.4938 46.8187 32.633 34.0018 30.9586 30.1649
threshold=0 4668.5000000000009 1 12.500000000000002 5036.5000000000009 27.500000000000004 7.5000000000000009 40.500000000000007 43.500000000000007 35.500000000000007 12.500000000000002 28.500000000000004 2 2218.5000000000005 5036.5000000000009 3 33.500000000000007 4 5 34.500000000000007 27.500000000000004 37.500000000000007 24.500000000000004 6 3120.0000000000005 4243.5000000000009 1834.5000000000002 9.5000000000000018 43.500000000000007 9.5000000000000018
decision_type=9 2 9 2 2 2 2 2 2 2 2 2 9 2 2 9 2 9 9 2 2 2 2 9 2 2 2 2 2 2
left_child=2 3 10 7 6 -5 23 13 15 22 11 -1 19 16 21 -7 -2 -18 20 29 -9 -13 -8 -4 -23 -26 27 -24 -21 -11
right_child=1 -3 4 5 -6 8 9 18 -10 12 -12 14 -14 -15 -16 -17 17 -19 -20 28 -22 24 26 -25 25 -27 -28 -29 -30 -31
leaf_value=0.030666962935846268 -0.057943404471686548 0.10314430253525937 0.010657803177812055 -0.045819860446783184 0.10662350830711964 0.02115110886088219 -0.031227199415939225 -0.045184313312258417 0.061379778715744765 -0.038370607745043007 0.094348754918937031 0.04449145400200253 0.020938891403521922 0.095046283934032971 0.10752852347598887 -0.030653501002954827 -0.0046870327914036499 -0.047227699604952704 -0.034347557420411838 0.057600386813885934 0.018871489579795949 0.079012377382382704 0.0079551214213000997 -0.03178390203386091 -0.079146533739009206 0.079947129486810292 0.11319726309318622 0.041863292277372829 0.079772176731915834 0.043292873717383405
leaf_weight=88.684997394680977 626.75330071151257 174.06584461033344 123.31238731741905 104.47126772999763 145.62190321087837 175.30093552172184 31.165331572294235 35.920906484127045 201.53969387710094 17.519951164722443 1625.3659265339375 106.18736472725868 166.59106412529945 7.5833702683448783 136.87223982810974 59.041103079915047 141.15409202873707 345.17375460267067 119.25768078863621 419.30051055550575 154.78364811837673 888.34717170894146 158.04277424514294 63.363859683275223 8.0974424332380295 10.781746506690979 10.575824692845343 138.9177913069725 252.10286115109921 31.892793491482735
leaf_count=286 4291 258 507 637 190 664 154 214 516 91 2498 294 550 19 176 309 747 2227 670 1042 653 1802 612 345 35 22 17 405 541 93
internal_value=0 -0.0134008 0.0714018 -0.0237613 0.0450019 0.0173712 0.0389688 -0.0392973 0.0325167 0.0456448 0.0855587 0.0747179 0.0548438 -0.0473629 0.0781141 0.00769375 -0.0483332 -0.035948 -0.0101359 0.0615355 0.0064669 0.0741414 0.0215433 -0.00487996 0.0776118 0.0117105 0.026891 0.0238173 0.0659256 0.014338
internal_weight=0 2145.05 4422.74 1970.98 1558.41 540.353 1412.79 1430.63 435.882 1226.11 2864.34 1238.97 887.407 1120.66 1150.29 234.342 1113.08 486.328 309.962 720.816 190.705 1013.41 338.702 186.676 907.226 18.8792 307.536 296.961 671.403 49.4127
internal_count=20865 11205 9660 10947 4547 2126 4357 8821 1489 3505 5113 2615 2317 7284 2329 973 7265 2974 1537 1767 867 2153 1188 852 1859 57 1034 1017 1583 184
cat_boundaries=0 1 2 3 4 5 6 7
cat_threshold=4 15378 16521 7184 3096 31768 16520
is_linear=0
shrinkage=0.05


Tree=8
num_leaves=31
num_cat=7
split_feature=5 10 6 4 10 0 4 12 12 10 0 4 0 0 6 11 6 6 6 10 10 0 12 12 0 11 11 12 6 4
split_gain=3681.35 928.056 558.009 468.435 218.119 187.468 146.364 129.345 109.419 105.371 96.4432 96.3332 61.9829 58.1686 62.9928 49.6643 48.9963 48.0188 47.8625 45.2386 44.0386 43.7746 40.9237 40.0767 49.0595 36.8765 32.994 32.4818 31.4151 30.559
threshold=0 4668.5000000000009 1 12.500000000000002 5036.5000000000009 27.500000000000004 7.5000000000000009 40.500000000000007 43.500000000000007 5036.5000000000009 38.500000000000007 9.5000000000000018 29.500000000000004 33.500000000000007 2 1789.0000000000002 3 4 5 3120.0000000000005 4243.5000000000009 27.500000000000004 34.500000000000007 42.500000000000007 25.500000000000004 1789.0000000000002 1834.5000000000002 39.500000000000007 6 9.5000000000000018
decision_type=9 2 9 2 2 2 2 2 2 2 2 2 2 2 9 2 9 9 9 2 2 2 2 2 2 2 2 2 9 2
left_child=2 3 9 7 6 -5 28 13 16 11 23 25 -13 -2 -15 17 -7 22 21 26 -21 -9 29 24 -8 27 -14 -1 -4 -12
right_child=1 -3 4 5 -6 8 10 18 -10 -11 15 12 19 14 -16 -17 -18 -19 -20 20 -22 -23 -24 -25 -26 -27 -28 -29 -30 -31
leaf_value=0.016362065273488498 -0.056768068066106958 0.096907930913006687 0.010116211360729375 -0.044795113600580354 0.10070418308026075 0.019969409327653665 -0.048680645330971072 -0.044138386579240081 0.057228313692914728 0.10241395943009673 -0.044634288607890607 0.051069015821869568 0.082271904730632436 -0.0053507686859139581 -0.045470858877300263 0.099823881960113769 -0.029771330336161583 0.018744567747918311 -0.033383154324115552 -0.07932607321060442 0.065390566266252073 0.017756083782085996 0.06132269846740962 0.043918905604685539 0.020387180115940078 0.10468295371387129 0.10293174058007165 0.057233791982364349 -0.030897401493782659 0.041808211829240147
leaf_weight=55.93083119392395 605.60151146352291 175.95017708837986 123.93736970424652 101.59181828796864 146.44691906869411 176.93904466927052 28.458393543958664 34.95815572142601 205.25105930864811 467.10304832458496 15.692510560154913 155.91843463480473 1565.6801467239857 156.51052612066269 324.87229704856873 54.280863136053085 58.072290107607841 138.83947731554508 116.91686022281647 8.1289769262075442 14.879556983709334 156.24273812770844 532.99249924719334 175.11774410307407 266.27766384184361 35.845237866044044 220.46247054636478 371.43628084659576 62.238635778427124 29.339705601334572
leaf_count=190 4297 258 507 637 190 664 154 214 516 595 85 371 2656 832 2155 82 309 463 670 35 32 653 1247 505 885 52 291 891 345 84
internal_value=0 -0.0129773 0.0671093 -0.0230261 0.0423234 0.0164284 0.0366293 -0.0383501 0.0305559 0.0803883 0.0428312 0.0764825 0.0813176 -0.0464558 -0.0334825 0.0537113 0.00726118 0.0502197 -0.00975479 0.0839246 0.0142618 0.00611957 0.0564785 0.0249743 0.0137183 0.0559705 0.0848219 0.0518848 -0.00471085 0.0116853
internal_weight=0 2112.91 4469.01 1936.96 1573.62 541.854 1427.17 1395.1 440.262 2895.38 1241 2428.28 1965.07 1086.98 481.383 771.145 235.011 716.864 308.118 1809.15 23.0085 191.201 578.025 469.854 294.736 463.212 1786.14 427.367 186.176 45.0322
internal_count=20865 11205 9660 10947 4547 2126 4357 8821 1489 5113 3505 4518 3385 7284 2987 1961 973 1879 1537 3014 67 867 1416 1544 1039 1133 2947 1081 852 169
cat_boundaries=0 1 2 3 4 5 6 7
cat_threshold=4 15378 11288 7184 16521 31768 16520
is_linear=0
shrinkage=0.05


Tree=9
num_leaves=31
num_cat=7
split_feature=5 10 4 6 10 12 0 6 10 6 9 0 0 0 11 12 12 6 11 11 10 10 4 4 12 4 11 0 9 11
split_gain=3276.47 839.411 506.379 439.557 176.139 172.8 146.766 135.156 112.27 105.05 85.6843 83.7183 70.2428 66.4251 62.2368 59.4673 54.0729 51.0259 46.7025 54.4758 43.2963 52.6407 41.9987 40.1269 38.7296 38.2201 38.2111 37.1089 34.8562 34.526
threshold=0 4668.5000000000009 9.5000000000000018 1 5036.5000000000009 40.500000000000007 32.500000000000007 2 5036.5000000000009 3 4 36.500000000000007 28.500000000000004 29.500000000000004 2218.5000000000005 37.500000000000007 44.500000000000007 5 1789.0000000000002 1175.0000000000002 3120.0000000000005 4243.5000000000009 6.5000000000000009 14.500000000000002 51.500000000000007 5.5000000000000009 1834.5000000000002 38.500000000000007 6 1521.5000000000002
decision_type=9 2 2 9 2 2 2 9 2 9 1 2 2 2 2 2 2 9 2 2 2 2 2 2 2 2 2 2 1 2
left_child=2 3 4 6 7 14 16 22 9 -4 -8 24 -7 -11 27 -13 -2 -14 19 20 -15 -22 -1 -12 26 -17 -9 -5 -29 -21
right_child=1 -3 8 5 -6 12 10 11 -10 13 23 15 17 18 -16 25 -18 -19 -20 29 21 -23 -24 -25 -26 -27 -28 28 -30 -31
leaf_value=-0.043245986419111815 -0.045093445796848361 0.091550960521609756 0.034281720886703136 -0.055234327350692197 0.096976991066589205 -0.043860564648431473 0.058210326341891654 0.0078116399312714068 0.096875452941028325 0.045956459163823266 0.0031811730803600804 0.0034285883386192049 0.027198543903519501 0.076090766697289022 0.094826737617081575 0.014261335833575634 0.015273833083029573 -0.019438219328230893 0.097535656126379142 0.055482083214152579 -0.077086675063367804 0.065149049096770842 0.0093514629879739714 0.070721289853828168 0.061480625873888389 0.05756387264147457 0.095389896650011741 -0.01394821765689587 -0.047392697970698838 -0.086756858855992561
leaf_weight=47.474665328860283 107.03002513945103 176.90456968545914 242.33967953920364 696.7715810239315 120.78541828691959 85.51593978703022 174.91273760795593 251.46675227582455 492.81335988640785 187.4174674898386 189.13329750299454 62.527044430375099 138.46106274425983 1833.5539651960135 7.6121000945568076 55.170974463224411 56.77121202647686 88.965261772274971 245.11848533153534 8.6604597121477145 10.201249271631243 17.952755868434906 189.23407976329327 24.884820282459259 46.828766256570816 667.17067539691925 13.103824555873869 124.04336179792881 209.45608128607273 8.4083696454763395
leaf_count=275 707 258 672 5013 156 526 525 929 629 463 793 236 500 3227 20 219 227 456 325 18 45 38 708 54 121 1541 23 723 1403 35
internal_value=0 -0.0125702 0.0632991 -0.0223126 0.0391601 -0.0375194 0.0152542 0.0339211 0.0750259 0.0708093 0.0322507 0.0411288 -0.00522959 0.0741699 -0.0476169 0.0502073 -0.024171 0.00929627 0.0770088 0.0743307 0.0751459 0.0136117 -0.00114902 0.0110344 0.0195678 0.0542565 0.0121493 -0.0486693 -0.0349532 -0.014587
internal_weight=0 2080.46 4500.23 1903.56 1453.76 1350.83 552.732 1332.98 3046.47 2553.65 388.931 1096.27 312.942 2311.31 1037.88 784.869 163.801 227.426 2123.9 1878.78 1861.71 28.154 236.709 214.018 311.399 722.342 264.571 1030.27 333.499 17.0688
internal_count=20865 11205 9660 10947 4208 8641 2306 4052 5452 4823 1372 3069 1482 4151 7159 1996 934 956 3688 3363 3310 83 983 847 1073 1760 952 7139 2126 53
cat_boundaries=0 1 2 3 4 5 6 7
cat_threshold=4 3088 353 16864 2 28680 2
is_linear=0
shrinkage=0.05


Tree=10
num_leaves=31
num_cat=7
split_feature=7 10 6 6 0 10 3 3 10 0 0 12 11 9 0 12 11 0 12 11 11 12 12 11 6 11 10 10 0 0
split_gain=2913.43 763.207 470.86 446.513 264.638 162.632 138.869 133.979 91.0875 88.7939 74.396 63.7628 58.0792 54.5936 50.878 50.5355 40.607 35.3835 42.6828 33.2062 42.6897 32.0282 30.8052 30.5481 29.4917 28.7417 28.6267 57.9034 28.4603 28.1931
threshold=0 4668.5000000000009 1 2 27.500000000000004 5036.5000000000009 3 4 5036.5000000000009 27.500000000000004 36.500000000000007 45.500000000000007 1789.0000000000002 5 64.500000000000014 34.500000000000007 2218.5000000000005 34.500000000000007 41.500000000000007 1409.5000000000002 1568.5000000000002 49.500000000000007 34.500000000000007 1834.5000000000002 6 1521.5000000000002 3120.0000000000005 4243.5000000000009 23.500000000000004 33.500000000000007
decision_type=1 2 9 9 2 2 9 9 2 2 2 2 2 1 2 2 2 2 2 2 2 2 2 2 9 2 2 2 2 2
left_child=2 3 8 4 -2 7 13 10 9 28 -4 -8 14 22 19 -12 17 -5 -19 26 -21 -9 -6 24 -17 -15 29 -28 -1 -11
right_child=1 -3 5 16 6 -7 11 21 -10 12 15 -13 -14 25 -16 23 -18 18 -20 20 -22 -23 -24 -25 -26 -27 27 -29 -30 -31
leaf_value=-0.055338978278763176 -0.044658341715916747 0.085825544902404308 0.019426725712137376 -0.056387646250482974 -0.028263308929823747 0.090719894658596367 -0.018660247791014977 -0.024960207582345788 0.092852123205621945 0.05625370566746131 0.0051535873217796882 0.02729556969959622 0.092496435751604086 0.010958485328664268 0.023746608993908569 0.015274057544075468 0.080334391399422 -0.045198350750363318 -0.0045126131916431583 0.070164547721403764 -0.087065039292935006 0.034976699702296207 0.058125744862800824 0.08559168530583372 0.050404072571320679 0.084034872954680151 -0.076981186801699616 0.064691402779683979 0.031851571803254375 0.073033471355990351
leaf_weight=10.41773611307144 234.13625776767731 183.54542519152164 386.55110774934292 513.38835890591145 10.861518591642378 130.37637859582901 276.61147774755955 119.97977910935879 457.09836854040623 294.54482965171337 70.620464041829109 103.80400033295155 266.67092238366604 168.85512965917587 63.787258893251419 99.519080102443695 6.2193017303943625 289.77794057130814 82.90540523827076 9.7463401854038256 7.7499534338712683 27.373869985342026 206.67853966355324 53.981209114193916 659.68410685658455 14.62049415707588 9.9634934812784177 26.119122669100761 92.114048570394516 1667.5593231022358
leaf_count=50 1648 272 1301 3794 47 171 1614 584 585 614 272 398 357 598 165 327 17 1994 383 18 32 103 559 84 1557 33 44 54 242 2900
internal_value=0 -0.0115003 0.0600336 -0.0209238 0.00195112 0.0370402 0.0159414 0.0323649 0.0721145 0.0685379 0.0374281 -0.00596352 0.0705284 0.0359728 0.0677112 0.0457249 -0.0464603 -0.0478746 -0.0361476 0.0691025 0.00051997 -0.0129471 0.0538124 0.0492483 0.0466642 0.0167817 0.069703 0.0255713 0.0229926 0.0705145
internal_weight=0 2091.4 4453.86 1907.86 1015.57 1548.09 781.431 1417.71 2905.77 2448.67 1270.36 380.415 2346.14 401.016 2079.47 883.805 892.291 886.072 372.683 2015.68 17.4963 147.354 217.54 813.184 759.203 183.476 1998.19 36.0826 102.532 1962.1
internal_count=20817 11357 9460 11085 4897 4399 3249 4228 5061 4476 3541 2012 4184 1237 3827 2240 6188 6171 2377 3662 50 687 606 1968 1884 631 3612 98 292 3514
cat_boundaries=0 1 2 3 4 5 6 7
cat_threshold=33 15378 15384 22016 40833 2 288
is_linear=0
shrinkage=0.05


Tree=11
num_leaves=31
num_cat=8
split_feature=7 10 6 6 0 10 3 3 10 0 0 12 11 12 9 0 12 11 0 12 0 11 11 0 12 11 3 6 10 0
split_gain=2610.1 693.993 430.213 420.735 243.895 150.62 124.803 119.476 88.4638 80.5988 66.5603 54.0937 53.995 52.5783 49.0015 46.6913 44.9318 37.2592 35.3453 40.8685 30.3209 30.1112 38.7687 29.3175 28.9763 27.8894 26.3274 26.0062 25.8142 25.7146
threshold=0 4668.5000000000009 1 2 27.500000000000004 5036.5000000000009 3 4 5036.5000000000009 28.500000000000004 36.500000000000007 34.500000000000007 1789.0000000000002 45.500000000000007 5 64.500000000000014 34.500000000000007 2218.5000000000005 34.500000000000007 41.500000000000007 23.500000000000004 1409.5000000000002 1568.5000000000002 49.500000000000007 49.500000000000007 1834.5000000000002 6 7 7565.5000000000009 28.500000000000004
decision_type=1 2 9 9 2 2 9 9 2 2 2 2 2 2 1 2 2 2 2 2 2 2 2 2 2 2 9 9 2 2
left_child=2 3 8 4 -2 7 11 10 9 20 26 -6 15 -8 -13 21 -12 18 -5 -20 -1 -11 -23 -16 -9 27 29 -18 -3 -4
right_child=1 28 5 17 6 -7 13 24 -10 12 16 14 -14 -15 23 -17 25 -19 19 -21 -22 22 -24 -25 -26 -27 -28 -29 -30 -31
leaf_value=-0.053898746506781808 -0.043748142943479569 0.043430329849201331 -0.021145328259499257 -0.055724769160001998 -0.035391989316336428 0.086935167209250652 -0.01992713441251534 -0.024019469058816523 0.089022557883856296 0.066480140733093204 0.0048859505015199931 0.05314701143330966 0.088595780625560436 0.023739130269236741 0.0075013485586964664 0.022494186293106171 0.014511506875851388 0.073967176459345738 -0.044277359967879751 -0.0042968390684266049 0.03552768346166333 0.066281727287512859 -0.084010058196809123 0.054377780427137305 0.032691183360945383 0.081101721301660032 0.032992946247594794 0.047453427627232508 0.090937242684457589 0.016671029697054206
leaf_weight=10.167695626616476 227.23368564248085 35.463277399539948 61.805584639310837 494.01215797662735 27.08320839703083 129.27615402638912 249.28926539421082 118.48375196754932 453.02173765003681 1958.8911713957787 70.760688379406929 226.80064956843853 263.3091132491827 95.28778401017189 142.07376348972321 63.967023104429245 100.02336359024048 6.4116620719432822 281.23364792764187 82.720107391476631 139.89039599895477 9.7999015897512454 7.6331030577421179 43.587902873754501 27.811525508761406 54.116804748773575 162.49535220861435 666.11572706699371 147.63785192370415 164.86370992660522
leaf_count=50 1648 80 272 3794 125 171 1481 584 585 3510 272 629 353 363 528 165 327 17 1994 383 348 18 32 123 103 84 459 1557 192 570
internal_value=0 -0.011123 0.0569273 -0.0202468 0.00184518 0.035031 0.0150814 0.0305727 0.0684867 0.0649742 0.0353036 0.0323242 0.0672871 -0.00763042 0.0375543 0.0645371 0.043114 -0.0455892 -0.047014 -0.0351905 0.0294683 0.0658979 0.000475935 0.0185066 -0.0123915 0.0464118 0.0183282 0.0439615 0.081736 0.00609098
internal_weight=0 2058.83 4462.43 1875.73 1011.36 1555.75 784.123 1426.48 2906.68 2453.66 1280.18 439.546 2303.6 344.577 412.462 2040.29 891.017 864.378 857.966 363.954 150.058 1976.32 17.433 185.662 146.295 820.256 389.165 766.139 183.101 226.669
internal_count=20817 11357 9460 11085 4897 4399 3249 4228 5061 4476 3541 1405 4078 1844 1280 3725 2240 6188 6171 2377 398 3560 50 651 687 1968 1301 1884 272 842
cat_boundaries=0 1 2 3 4 5 6 7 8
cat_threshold=33 15378 15384 22144 40833 2 6273 288
is_linear=0
shrinkage=0.05


Tree=12
num_leaves=31
num_cat=7
split_feature=5 10 6 4 10 0 6 3 4 0 0 4 6 0 9 6 12 12 12 10 0 0 12 10 12 12 12 12 0 0
split_gain=2349.58 614.231 412.869 406.089 144.023 136.978 115.068 114.154 95.9979 71.7835 69.1419 68.7399 66.9459 57.0311 50.7719 40.6343 37.5455 36.4985 35.9437 31.5955 31.2548 30.3366 29.2353 28.8916 28.6449 27.3985 26.929 26.5826 26.1759 28.0501
threshold=0 7364.0000000000009 1 12.500000000000002 5036.5000000000009 27.500000000000004 2 3 12.500000000000002 28.500000000000004 38.500000000000007 14.500000000000002 4 32.500000000000007 5 6 39.500000000000007 41.500000000000007 16.500000000000004 5036.5000000000009 25.500000000000004 44.500000000000007 44.500000000000007 5036.5000000000009 42.500000000000007 41.500000000000007 41.500000000000007 49.500000000000007 43.500000000000007 61.500000000000007
decision_type=9 2 9 2 2 2 9 9 2 2 2 2 9 2 1 9 2 2 2 2 2 2 2 2 2 2 2 2 2 2
left_child=2 3 8 6 7 -5 10 9 13 26 22 12 16 19 -12 -11 -7 28 -15 -1 -10 24 -2 -20 -14 -8 -4 -9 -17 -30
right_child=1 -3 4 5 -6 11 25 27 20 15 14 -13 21 18 -16 17 -18 -19 23 -21 -22 -23 -24 -25 -26 -27 -28 -29 29 -31
leaf_value=0.024308437837617519 -0.043334713060470278 0.085934768509140794 -0.025261077141258317 -0.039761405013683845 0.083320341762936775 -0.0426948073480823 -0.050709908346445988 -0.024286394971382255 0.0017658723587422741 0.011510461777093965 0.029948160009250064 0.070139974963451451 -0.031708132333624704 -0.00646105299903511 -0.02116890993433029 0.023325121591498667 0.051312630421262599 0.053609131950146299 0.058022449754360897 0.091241895411294072 0.074059824610670996 0.02257776284583712 -0.0055836154884732897 0.084199685726264906 0.014256094949811782 -0.026952620801076056 0.026285596591866984 0.029332858157250091 0.049257297678963904 0.009637033206806183
leaf_weight=182.73616053164005 165.8043869882822 149.57812578976154 67.371959239244461 92.854581385850906 129.552515655756 11.43634521961212 684.01238553225994 120.74285267293453 15.089503556489943 170.36092042922974 114.24731236696243 76.244957193732262 87.911566615104675 20.154792204499245 84.51032230257988 312.96523475646973 149.01311141252518 359.68368612229824 945.81190441548824 19.513835608959198 1621.7658205330372 94.000590279698372 74.251479506492615 118.62587760388851 55.166371941566467 147.53562028706074 40.609640926122665 28.588087365031242 295.02408874034882 52.643734604120255
leaf_count=517 1228 199 306 649 174 52 5413 609 42 574 501 160 440 65 455 917 396 811 1844 25 2476 322 372 157 166 856 131 105 682 173
internal_value=0 -0.0114401 0.0538338 -0.0194311 0.0326063 0.0157688 -0.0351316 0.028294 0.0651373 0.0329064 -0.0132954 0.0266522 0.0183113 0.0551418 0.00821355 0.0366999 0.0419947 0.040397 0.0596873 0.0307664 0.0733934 0.000490809 -0.031658 0.0609398 -0.0139858 -0.0459423 -0.00587544 -0.0131414 0.0338151 0.043258
internal_weight=0 1986.57 4501.24 1836.99 1577.54 566.628 1270.36 1447.99 2923.7 1298.66 438.814 473.773 397.528 1286.84 198.758 1190.68 160.449 1020.32 1084.59 202.25 1636.86 237.079 240.056 1064.44 143.078 831.548 107.982 149.331 660.633 347.668
internal_count=20817 11209 9608 11010 4482 2185 8825 4308 5126 3594 2556 1536 1376 2608 956 3157 448 2583 2066 542 2518 928 1600 2001 606 6269 437 714 1772 855
cat_boundaries=0 1 2 3 4 5 6 7
cat_threshold=4 15378 27672 40833 4112 2 288
is_linear=0
shrinkage=0.05


Tree=13
num_leaves=31
num_cat=6
split_feature=5 10 6 4 10 0 6 3 4 0 4 6 10 0 12 12 0 12 12 0 12 4 9 10 10 0 12 12 10 10
split_gain=2115.16 564.959 381.57 364.936 134.873 120.069 104.85 102.046 92.6129 65.3547 60.294 63.1216 54.6906 58.295 52.0213 37.5509 33.7182 33.3599 32.229 28.6939 28.3521 27.209 27.0929 26.8449 33.3251 26.4342 32.1689 24.1242 23.7693 23.8061
threshold=0 4668.5000000000009 1 12.500000000000002 5036.5000000000009 27.500000000000004 2 3 12.500000000000002 35.500000000000007 14.500000000000002 4 5036.5000000000009 32.500000000000007 45.500000000000007 34.500000000000007 38.500000000000007 39.500000000000007 34.500000000000007 25.500000000000004 41.500000000000007 9.5000000000000018 5 7792.0000000000009 4826.0000000000009 44.500000000000007 44.500000000000007 49.500000000000007 5036.5000000000009 3120.0000000000005
decision_type=9 2 9 2 2 2 9 9 2 2 2 9 2 2 2 2 2 2 2 2 2 2 1 2 2 2 2 2 2 2
left_child=2 3 8 6 7 -5 14 9 12 21 11 17 13 -1 16 -11 -2 -7 22 -10 -8 -4 -15 24 -3 26 -13 -9 29 -21
right_child=1 23 4 5 -6 10 20 27 19 15 -12 25 -14 18 -16 -17 -18 -19 -20 28 -22 -23 -24 -25 -26 -27 -28 -29 -30 -31
leaf_value=0.022970354531071199 -0.039231762220605294 0.096469153031557203 0.00078312909800644012 -0.038598510729785755 0.080365786570141137 -0.041337774683322059 -0.049499192618311844 -0.023375050757668159 0.0016773086864292613 0.0038606247173477771 0.065375974624178837 -0.034320055936436167 0.082232252373217254 -0.0039518403729900944 0.01763600268101782 0.041152466158567859 -0.0049870209265630043 0.04804005804678374 0.056302989319151592 0.068714306497770633 -0.025660395971724599 0.028280631792620969 0.057861691086405903 0.084298668318201722 -0.0085729706319257661 0.019856556517646326 0.015484841757002899 0.027508514021990865 0.083447164867142015 0.0049149442786718435
leaf_weight=183.6866243481636 156.46358048170805 12.550939142704012 197.82342621684074 89.94124660640955 127.64723639190197 11.226584896445273 681.74247920513153 119.2174449712038 15.091887727379797 73.182828098535538 75.617931663990021 84.136346653103828 136.80513989925385 42.638639107346535 104.64767506718636 870.01501022279263 132.96948228776455 149.02591647207737 894.35624487698078 1286.44758695364 152.65428681671619 164.99932645261288 30.340683862566948 141.88282245397568 18.952445641160011 89.167790412902832 52.747162774205208 28.950151994824409 307.44223189353943 14.789694458246229
leaf_count=517 1168 16 763 647 174 52 5581 609 42 278 158 437 183 133 429 2080 718 392 1709 2029 897 473 66 188 59 310 157 105 406 41
internal_value=0 -0.0110723 0.0512357 -0.0195198 0.0308921 0.0142552 -0.0346923 0.0267618 0.0621446 0.0310839 0.0245464 0.0165541 0.0523449 0.0487926 -0.0122646 0.038259 -0.0234993 0.0393247 0.0536959 0.0702996 -0.0446033 0.013288 0.0217467 0.0750281 0.0332758 -0.00127183 -0.0151281 -0.0125837 0.0709434 0.0679892
internal_weight=0 1953.73 4493.43 1780.34 1581.84 551.863 1228.48 1454.19 2911.6 1306.02 461.922 386.304 1287.83 1151.02 394.081 943.198 289.433 160.253 967.336 1623.77 834.397 362.823 72.9793 173.386 31.5034 226.051 136.884 148.168 1608.68 1301.24
internal_count=20817 11209 9608 10946 4482 2153 8793 4308 5126 3594 1506 1348 2608 2425 2315 2358 1886 444 1908 2518 6478 1236 199 263 75 904 594 714 2476 2070
cat_boundaries=0 1 2 3 4 5 6
cat_threshold=4 15378 19480 40833 4112 2
is_linear=0
shrinkage=0.05


Tree=14
num_leaves=31
num_cat=8
split_feature=5 10 6 4 10 0 5 3 4 6 6 0 10 0 11 10 9 6 12 11 11 12 12 4 12 11 10 0 12 10
split_gain=1908.11 518.054 354.725 340.711 126.862 108.963 92.5836 91.3057 89.8672 67.9936 66.057 60.4244 53.3192 53.5846 46.7269 44.7324 40.6658 40.494 36.0045 33.943 33.3871 30.7033 29.7648 28.802 28.1421 27.8293 26.5492 29.363 25.7121 25.3098
threshold=0 4668.5000000000009 1 11.500000000000002 5036.5000000000009 27.500000000000004 2 3 12.500000000000002 4 5 28.500000000000004 5036.5000000000009 33.500000000000007 1834.5000000000002 1.0000000180025095e-35 6 7 45.500000000000007 2218.5000000000005 2001.5000000000002 41.500000000000007 15.500000000000002 15.500000000000002 37.500000000000007 1789.0000000000002 5036.5000000000009 25.500000000000004 44.500000000000007 7792.0000000000009
decision_type=9 2 9 2 2 2 9 9 2 9 9 2 2 2 2 2 1 9 2 2 2 2 2 2 2 2 2 2 2 2
left_child=2 3 8 6 7 -5 19 11 12 15 18 -4 13 -1 17 16 -7 -13 -8 28 -16 -19 -15 24 -18 -24 27 -10 -2 -3
right_child=1 29 4 5 -6 9 10 -9 26 -11 -12 14 -14 22 20 -17 23 21 -20 -21 -22 -23 25 -25 -26 -27 -28 -29 -30 -31
leaf_value=0.02357175342808792 -0.052197399687232832 0.031716091232762471 -0.0062148854736443666 -0.036003402053198068 0.077725618335558549 0.047231355183370481 -0.0098536439416119798 -0.012048142769607478 -0.0088700149910847566 -0.016654029410179256 -0.035450996280434889 0.0058440082464329725 0.079585921212346089 -0.015854152897200845 0.092067035775939707 -0.076385430119596087 -0.045648870203981284 0.028028806402388334 0.033335153552873267 0.081183523315732586 0.005295820221112627 0.04664313234608785 0.050089502655347132 0.073277872961273735 0.016445182799276821 0.082663877965870852 0.080829276233391617 0.065176787121620769 -0.027803225031776652 0.081393749083944256
leaf_weight=211.66619858145714 573.35828488320112 31.404976159334183 108.04092563688755 101.93772275000811 125.43953154981136 214.16650518029928 152.8544003367424 147.02936394512653 13.528788253664969 96.803273938596249 202.69021347910166 164.98586390912533 134.34815861284733 16.161046266555786 52.186716362833977 9.6935453116893751 20.788339592516422 632.10357615351677 70.519426301121712 5.1536649465560904 14.075907319784163 341.05709818005562 853.42295381426811 19.320266574621201 149.27672398835421 71.024605423212051 303.45126265287399 1289.8055245578289 133.09540339559317 139.65501128137112
leaf_count=580 4864 75 437 760 174 568 936 714 40 509 1561 563 183 54 69 46 104 1711 256 14 38 776 1693 36 512 98 408 2070 780 188
internal_value=0 -0.0107186 0.0488446 -0.0188937 0.0292889 0.0111894 -0.0350764 0.0253265 0.0594188 0.0206213 -0.0153543 0.0293814 0.0497769 0.0463013 0.0328185 0.0290531 0.0323057 0.0304422 0.0036191 -0.0460221 0.0736346 0.034201 0.0514162 0.0154271 0.00885496 0.0525922 0.0675094 0.0644082 -0.0476016 0.0722734
internal_weight=0 1920.72 4478.33 1749.66 1584.92 611.986 1137.67 1459.48 2893.41 510.049 426.064 1312.45 1286.62 1152.27 1204.41 413.245 403.552 1138.15 223.374 711.607 66.2626 973.161 940.609 189.385 170.065 924.448 1606.79 1303.33 706.454 171.06
internal_count=20817 11209 9608 10946 4482 2535 8411 4308 5126 1775 2753 3594 2608 2425 3157 1266 1220 3050 1192 5658 107 2487 1845 652 616 1791 2518 2110 5644 263
cat_boundaries=0 1 2 3 4 5 6 7 8
cat_threshold=4 15378 48 40833 7184 31768 2 288
is_linear=0
shrinkage=0.05


Tree=15
num_leaves=31
num_cat=11
split_feature=5 10 3 3 10 6 0 5 11 11 6 12 0 1 10 0 11 11 11 11 0 11 10 3 11 3 9 2 6 12
split_gain=1748.91 512.302 321.27 316.501 164.962 133.47 130.179 85.6071 71.0019 63.6378 52.5293 50.1855 49.6523 48.313 48.1915 42.8776 41.3955 39.6348 38.3315 37.6969 34.7843 29.1357 29.062 33.5806 28.6386 28.1743 27.1766 26.8856 26.4952 25.3586
threshold=0 7073.5000000000009 1 2 5036.5000000000009 3 31.500000000000004 4 1789.0000000000002 1521.5000000000002 5 44.500000000000007 30.500000000000004 6 5036.5000000000009 36.500000000000007 1789.0000000000002 1521.5000000000002 2001.5000000000002 2262.5000000000005 25.500000000000004 2218.5000000000005 3120.0000000000005 7 2218.5000000000005 8 9 43335.500000000007 10 40.500000000000007
decision_type=9 2 9 9 2 9 2 9 2 2 9 2 2 9 2 2 2 2 2 2 2 2 2 9 2 9 1 2 9 2
left_child=2 3 14 6 5 15 17 21 9 12 26 19 -7 22 16 -4 20 -2 -10 28 -1 29 23 -14 -12 -17 27 -9 -8 -5
right_child=1 -3 4 7 -6 8 11 10 18 -11 24 -13 13 -15 -16 25 -18 -19 -20 -21 -22 -23 -24 -25 -26 -27 -28 -29 -30 -31
leaf_value=-0.0046912323245022446 -0.031651801711828152 0.077979618322967806 -0.015634853068691716 -0.051830413368477317 0.076186864566455514 0.010191752196785225 0.016025909612963973 0.10864069244133999 0.088938775466786385 -0.080652918624806058 -0.035649160445466961 0.043772306806541927 0.0016977798622932222 0.016812833045242153 0.077903600239774537 -0.023048772637186798 0.07893577310589342 0.079579647919782726 0.0045050277260809263 0.12533680342036654 0.055883701012012579 0.091995775286174142 -0.022384741666160071 0.046170541340951068 0.11005867953465787 0.020590672922682862 -0.015298573311649914 0.01351324008544149 -0.019819045235521318 -0.028257647618255236
leaf_weight=24.072795033454895 165.12833761423826 148.91450916230679 155.64534711837769 541.0876025930047 205.13096822798252 184.42199949920177 176.54254331439734 8.0591652318835241 88.798978045582771 12.096296176314352 224.52400901913643 195.40958286821842 55.985177740454674 270.13637794554234 355.81296895444393 35.176569238305092 203.3506443053484 8.4169183298945409 15.839733332395552 6.8657332062721244 1527.9158343076706 3.7987167090177527 16.641671478748322 975.46867065131664 3.4237212985754004 306.51750236749649 103.78933873027563 94.777285791933537 62.406784407794476 144.5723223015666
leaf_count=79 1058 206 651 4774 288 613 625 25 121 53 1716 471 213 722 491 187 283 29 43 10 2744 9 54 2086 7 936 621 453 373 867
internal_value=0 -0.0109686 0.0464856 -0.0186494 0.0332322 0.0292265 0.0102626 -0.034249 0.0361007 0.0335719 -0.0158777 0.0248593 0.0344914 0.0378909 0.0608365 0.00599707 0.0577235 -0.0262571 0.0761576 0.0098245 0.0549441 -0.045436 0.0427552 0.0442207 -0.0320544 0.0160262 0.00262422 0.0209683 0.00650548 -0.0468601
internal_weight=0 1887.72 4433.01 1738.8 2321.86 2116.73 614.77 1124.03 1619.39 1514.75 434.574 441.225 1502.65 1318.23 2111.15 497.339 1755.34 173.545 104.639 245.815 1551.99 689.459 1048.1 1031.45 227.948 341.694 206.626 102.836 238.949 685.66
internal_count=20808 11244 9564 11038 5967 5679 2566 8472 3905 3741 2822 1479 3688 3075 3597 1774 3106 1087 164 1008 2823 5650 2353 2299 1723 1123 1099 478 998 5641
cat_boundaries=0 1 2 3 4 5 6 7 8 9 10 11
cat_threshold=4 22400 22272 481 48 15384 50 118 49 2 7184
is_linear=0
shrinkage=0.05


Tree=16
num_leaves=31
num_cat=3
split_feature=7 10 4 6 0 10 6 12 11 11 0 11 11 4 0 4 0 0 10 10 11 0 4 10 11 12 12 12 10 0
split_gain=1584.75 473.045 323.371 306.621 197.349 168.412 109.151 80.7595 73.2398 70.5513 56.1352 51.7613 47.0887 42.7776 40.4496 38.8247 34.3245 32.7338 30.0574 31.1304 28.1934 26.5829 26.5239 24.8283 24.3136 24.0165 23.1887 22.3976 19.1834 18.3967
threshold=0 7073.5000000000009 12.500000000000002 1 27.500000000000004 5036.5000000000009 2 42.500000000000007 1789.0000000000002 1521.5000000000002 35.500000000000007 2218.5000000000005 2001.5000000000002 7.5000000000000009 64.500000000000014 13.500000000000002 34.500000000000007 38.500000000000007 5036.5000000000009 3120.0000000000005 2429.5000000000005 36.500000000000007 9.5000000000000018 754.00000000000011 1789.0000000000002 41.500000000000007 35.500000000000007 21.500000000000004 3120.0000000000005 50.500000000000007
decision_type=1 2 2 9 2 2 9 2 2 2 2 2 2 2 2 2 2 2 2 2 2 2 2 2 2 2 2 2 2 2
left_child=2 3 5 4 -2 6 13 15 9 10 -8 16 -10 -1 22 17 -5 -6 19 24 23 -15 28 -9 27 -18 -19 -4 -12 -30
right_child=1 -3 18 11 7 -7 8 20 12 -11 14 -13 -14 21 -16 -17 25 26 -20 -21 -22 -23 -24 -25 -26 -27 -28 -29 29 -31
leaf_value=-0.023037294674633613 -0.042706982615157318 0.075378249103660061 0.023782152776072783 -0.052373542580102121 -0.027562021763802732 0.074295525452446234 0.018794533227117098 0.031071013993830457 0.085282869970830871 -0.079525915832718952 0.035236188107737175 0.10225094601154994 -0.0045312597549328308 -0.0018222732386711351 -0.0058780392794568715 0.029044535635362214 -0.038607471792486775 -0.029938278892112868 0.075826081422219166 -0.012247605281787741 0.1175995824856422 0.023925036224128827 0.048613395330253564 -0.034768984071285973 0.076795821267513331 -0.0076210539704255099 0.011649588806140823 0.058265069472014742 -0.087849040593483585 0.032304243293287148
leaf_weight=84.035755977034569 203.86845340579748 149.03818643093109 49.074652284383774 417.52728874981403 142.25251135975122 234.63808009028435 446.78664229810238 323.79100851714611 106.70536360144615 13.776583597064016 627.98777392506599 6.1994256228208533 16.905936315655708 146.94837234914303 47.600505650043488 82.668463036417961 250.08859485387802 41.749917693436146 309.03170166909695 15.33491091430187 9.0462320446968061 315.44870440661907 603.05733193457127 14.981304645538328 175.20806521177292 83.381554663181305 170.00170788168907 1164.6781076639891 6.2619110792875272 6.4848644137382507
leaf_count=453 1710 211 113 3768 919 336 1292 970 146 61 1501 13 47 541 150 256 2015 250 436 45 12 873 1162 57 246 402 801 1980 26 16
internal_value=0 -0.0100716 0.0446699 -0.0174251 0.00110951 0.0338492 0.0299309 0.0125104 0.0356122 0.0331776 0.0340709 -0.0410901 0.0729993 0.00960293 0.0393561 -0.00180724 -0.0428206 -0.00901187 0.0617087 0.058602 0.0304856 0.0157426 0.0410872 0.0281594 0.0593843 -0.0308596 0.00344993 0.0568709 0.0340036 -0.0267216
internal_weight=0 1894.59 4369.97 1745.56 988.36 2656.64 2422 784.491 1875.57 1751.96 1738.18 757.197 123.611 546.433 1291.39 436.673 750.997 354.004 1713.33 1404.3 347.819 462.397 1243.79 338.772 1388.96 333.47 211.752 1213.75 640.735 12.7468
internal_count=20808 11384 9424 11173 4975 6604 6268 3265 4401 4208 4147 6198 193 1867 2855 2226 6185 1970 2820 2384 1039 1414 2705 1027 2339 2417 1051 2093 1543 42
cat_boundaries=0 1 2 3
cat_threshold=33 15384 481
is_linear=0
shrinkage=0.05


Tree=17
num_leaves=31
num_cat=7
split_feature=5 10 4 3 10 6 5 12 11 11 6 11 11 4 4 12 4 10 10 6 10 12 11 2 9 4 11 11 12 2
split_gain=1438.68 436.06 307.675 281.509 163.357 112.633 81.3893 75.3813 67.1326 65.0766 45.2758 44.7965 43.7975 42.7837 40.3857 39.6956 37.2673 32.9726 32.1286 30.4827 28.3919 27.5258 24.8016 24.1144 23.727 23.7083 23.1885 23.0797 22.4504 22.1327
threshold=0 7073.5000000000009 12.500000000000002 1 5036.5000000000009 2 3 44.500000000000007 1789.0000000000002 1521.5000000000002 4 2218.5000000000005 2001.5000000000002 9.5000000000000018 7.5000000000000009 39.500000000000007 13.500000000000002 3120.0000000000005 5036.5000000000009 5 3120.0000000000005 40.500000000000007 1789.0000000000002 151605.00000000003 6 14.500000000000002 1789.0000000000002 2218.5000000000005 21.500000000000004 43335.500000000007
decision_type=9 2 2 9 2 9 9 2 2 2 9 2 2 2 2 2 2 2 2 9 2 2 2 2 1 2 2 2 2 2
left_child=2 3 4 7 5 14 21 11 9 13 24 16 -10 15 -1 -7 -2 -17 20 -9 22 -5 28 -15 29 -21 -16 -12 -4 -8
right_child=1 -3 18 6 -6 8 10 19 12 -11 27 -13 -14 23 26 17 -18 -19 -20 25 -22 -23 -24 -25 -26 -27 -28 -29 -30 -31
leaf_value=-0.023523162364014111 -0.018364940761394985 0.073572107428430789 0.021346866927432318 -0.050233107845357922 0.072202640173549396 -0.0076316403371832573 0.09621884934271506 0.047044313170508473 0.082244680800461822 -0.077160182008389575 -0.03385886317787553 0.11101810910279825 -0.0015881782048169221 0.029523841636161646 0.011396813509071829 0.029720772779788174 0.018440438870163185 -0.044390542459911683 0.073989333441473293 4.832224129818801e-05 -0.011645383012598841 -0.025338989273148173 0.074591010042470179 0.047043647689868455 -0.014731754781557244 0.049834446046256871 0.066174090874338037 0.092950956448727917 0.055680837448667808 0.012244136340380161
leaf_weight=85.984768532216549 246.04362668097019 142.63117247819901 49.64951790869236 505.92187944799662 231.4512767791748 84.483646631240845 8.5476088523864728 124.47846642136574 105.1535932123661 13.626008927822111 213.54156649857759 8.082735136151312 18.289563477039337 309.89961887896061 446.34545210003853 811.47554543614388 95.46222548186779 15.2908329218626 303.61818066239357 105.28377021849155 15.321870014071463 142.26700795441866 171.46239836513996 536.30351962149143 102.70668067783117 30.939530834555626 20.19432045519352 3.6494159996509543 1160.1250031292439 95.66224330663681
leaf_count=475 1463 206 116 4779 340 302 25 302 146 62 1716 13 51 700 1403 2068 344 56 439 378 45 871 246 1078 621 66 35 7 2002 453
internal_value=0 -0.0103111 0.0425152 -0.0174831 0.0320527 0.0282552 -0.0327353 0.00969305 0.0339934 0.031688 -0.0147668 -0.00532306 0.0698239 0.0325319 0.00782299 0.0250142 -0.00807662 0.0283501 0.0592481 0.0302008 0.0560433 -0.0440891 0.0567941 0.0406275 0.00221603 0.0105793 0.0137679 -0.0303316 0.0542718 0.019132
internal_weight=0 1825.22 4378.68 1682.59 2678.5 2447.05 1072.3 610.29 1894.52 1771.08 424.108 349.589 123.443 1757.45 552.525 911.25 341.506 826.766 1700.18 260.702 1396.56 648.189 1381.24 846.203 206.917 136.223 466.54 217.191 1209.77 104.21
internal_count=20808 11244 9564 11038 6716 6376 8472 2566 4463 4266 2822 1820 197 4204 1913 2426 1807 2124 2848 746 2409 5650 2364 1778 1099 444 1438 1723 2118 478
cat_boundaries=0 1 2 3 4 5 6 7
cat_threshold=4 22272 481 48 15384 6160 2
is_linear=0
shrinkage=0.05


Tree=18
num_leaves=31
num_cat=9
split_feature=7 10 6 6 10 0 10 11 12 0 0 11 11 11 10 6 3 10 0 0 10 3 12 3 11 11 9 12 0 9
split_gain=1304.85 404.025 282.74 268.39 165.794 165.539 114.886 88.8496 70.2568 68.3003 72.1656 48.167 45.7776 44.9275 42.2223 40.3075 35.4433 34.4522 34.4199 32.7443 32.2825 28.622 28.3442 27.9082 25.223 23.6152 22.6491 21.8576 35.1692 23.3023
threshold=0 4668.5000000000009 1 2 4243.5000000000009 27.500000000000004 3120.0000000000005 1789.0000000000002 44.500000000000007 35.500000000000007 61.500000000000007 2218.5000000000005 1576.0000000000002 2001.5000000000002 2985.0000000000005 3 4 5036.5000000000009 35.500000000000007 27.500000000000004 754.00000000000011 5 41.500000000000007 6 2345.5000000000005 1789.0000000000002 7 41.500000000000007 25.500000000000004 8
decision_type=1 2 9 9 2 2 2 2 2 2 2 2 2 2 2 9 9 2 2 2 2 9 2 9 2 2 1 2 2 1
left_child=2 3 17 5 6 -2 7 9 21 16 12 18 14 -9 15 -11 27 19 -5 -1 26 -7 -20 -17 -15 -21 -10 28 -4 -30
right_child=1 -3 4 11 -6 8 -8 13 20 10 -12 -13 -14 24 -16 23 -18 -19 22 25 -22 -23 -24 -25 -26 -27 -28 -29 29 -31
leaf_value=0.014205520922303001 -0.041699795507970941 0.0643546186043054 -0.042722780845333055 -0.049644795442894567 0.067974390730478992 0.017515457536228952 -0.0803417006921128 0.080461095839890778 0.041799910468890235 0.015080053343956399 -0.0036658404381855825 0.086645505273170317 -0.07923133464105471 -0.053101974427702675 0.10073287352677816 -0.0034776682821051601 -0.028624003519593034 0.072241955978801564 -0.036673397120181493 0.052487840908712252 -0.074139055120681627 -0.010376880201347725 -0.0022366812051446126 0.039471135062772444 0.050976095340936778 0.072022658327891773 0.013834179044019687 0.025843722919984491 0.0041658835402000596 0.042457767238370886
leaf_weight=51.364981770515442 177.92341870069504 168.25738091766834 34.443427585065365 432.62965915352106 255.05416747927666 124.00082895904779 25.382848218083382 106.8244831264019 204.07044583559036 304.85165889561176 146.69528786838055 7.5251542031764975 8.9888035356998426 10.586987614631655 23.28083011507988 46.093479230999947 47.543490618467331 290.29249909520149 235.14546054601669 1297.7284329235554 7.3472962230443946 284.01038688421249 80.109950304031372 986.71937522292137 12.931892722845076 175.64751647412777 112.20991140604019 208.7337906062603 226.87801949679852 48.16535572707653
leaf_count=135 1577 278 168 4109 409 507 114 151 545 924 482 15 40 39 31 172 241 431 1982 2318 36 1587 388 2102 25 259 360 549 712 122
internal_value=0 -0.00943229 0.0409226 -0.0169456 0.0296607 0.00153828 0.025427 0.0266403 0.0120741 0.0241336 0.0296643 -0.0387094 0.0332333 0.0666873 0.0339762 0.0328143 0.00930769 0.056145 -0.0404883 0.0534486 0.0294713 -0.00172501 -0.0279226 0.0375394 0.00412551 0.0548167 0.0318782 0.0130875 0.0049069 0.0108715
internal_weight=0 1833.23 4308.21 1664.97 2493.17 909.562 2238.12 2212.74 731.639 2082.39 1516.63 755.41 1369.93 130.343 1360.95 1337.66 565.764 1815.03 747.885 1524.74 323.628 408.011 315.255 1032.81 23.5189 1473.38 316.28 518.221 309.487 275.043
internal_count=20808 11384 9424 11106 6281 4612 5872 5758 3035 5543 3751 6494 3269 215 3229 3198 1792 3143 6479 2712 941 2094 2370 2274 64 2577 905 1551 1002 834
cat_boundaries=0 1 2 3 4 5 6 7 8 9
cat_threshold=33 9232 7192 16736 39808 21952 23 2 2
is_linear=0
shrinkage=0.05


Tree=19
num_leaves=31
num_cat=10
split_feature=5 10 4 3 10 6 5 12 11 11 1 6 11 11 11 4 10 9 4 6 12 10 12 11 4 12 6 5 4 11
split_gain=1187.98 375.49 285.854 251.393 152.172 95.7056 77.3847 62.2386 50.8671 52.0925 46.2231 40.0294 38.5644 32.9912 32.876 32.7948 32.3253 30.2224 29.4324 27.4819 26.9354 25.9705 24.3861 23.7653 23.5536 21.2971 20.5277 20.1475 20.0899 19.698
threshold=0 7073.5000000000009 12.500000000000002 1 5036.5000000000009 2 3 41.500000000000007 1789.0000000000002 1521.5000000000002 4 5 2218.5000000000005 1789.0000000000002 2001.5000000000002 8.5000000000000018 5036.5000000000009 6 13.500000000000002 7 40.500000000000007 3120.0000000000005 43.500000000000007 1789.0000000000002 14.500000000000002 34.500000000000007 8 9 7.5000000000000009 2218.5000000000005
decision_type=9 2 2 9 2 9 9 2 2 2 9 9 2 2 2 2 2 1 2 9 2 2 2 2 2 2 9 9 2 2
left_child=2 3 4 7 5 8 20 12 9 10 17 -8 18 22 -10 -12 21 -1 27 -9 -5 23 28 25 -21 -4 -24 -2 -7 -13
right_child=1 -3 16 6 -6 13 11 19 14 -11 15 29 -14 -15 -16 -17 -18 -19 -20 24 -22 -23 26 -25 -26 -27 -28 -29 -30 -31
leaf_value=0.00065869718000534112 -0.026724255605444908 0.070103730194410449 0.02650070137107062 -0.049197653588010953 0.068834843288240063 -0.020357896976979917 0.00059951826902744599 0.042768385253500241 0.07701085319104399 -0.075335302606375415 0.0042434862846377338 -0.034487628707802614 0.10123893813191485 0.060493290179393436 0.0018570216939341512 0.036304035256430105 0.070691883527406227 0.058552987731668706 0.015952922273723795 -0.00081906786235137015 -0.024121967795828553 -0.012568484009445956 -0.00069540490091044753 0.070853516989702478 0.047988461242441049 0.052381864425929209 0.030501407853039814 0.0048485281450444916 0.0063920080400795545 0.080691956801661663
leaf_weight=184.12981207668781 156.29768512398005 135.97306515276432 85.691903382539749 471.97911076247692 219.57917404174805 85.113375432789326 228.47182758152485 129.62975704669952 92.257978454232216 11.668945074081419 85.143809095025063 181.7071624994278 8.2985198646783811 31.467918753623962 17.276891738176346 1262.1878024637699 287.44763849675655 25.687012180685997 92.257550217211246 112.57870899140835 138.52319161593914 15.284727886319159 84.744396157562733 163.33723632991314 31.672842741012573 1097.6151044517756 162.17980183660984 74.780880287289619 400.31364387273788 3.7894489616155616
leaf_count=521 1062 206 191 4779 340 458 1231 316 132 54 299 1584 13 58 47 2772 439 50 334 415 871 45 300 246 67 1927 409 359 1276 7
internal_value=0 -0.00966753 0.0390094 -0.0163813 0.0289649 0.0253801 -0.0313007 0.00922519 0.0320235 0.0299143 0.030703 -0.0137225 -0.00519007 0.0102292 0.0651569 0.0340254 0.0554556 0.00739405 -0.00792161 0.027017 -0.0428068 0.0522398 0.00820907 0.0529754 0.0092558 0.0505076 0.0210018 -0.0174535 0.00170176 -0.0304909
internal_weight=0 1765.96 4311.13 1629.99 2661.75 2442.17 1024.47 605.516 1678.35 1568.82 1557.15 413.968 331.635 763.819 109.535 1347.33 1649.38 209.817 323.336 273.881 610.502 1361.93 732.351 1346.64 144.252 1183.31 246.924 231.079 485.427 185.497
internal_count=20808 11244 9564 11038 6716 6376 8472 2566 3875 3696 3642 2822 1768 2501 179 3071 2848 571 1755 798 5650 2409 2443 2364 482 2118 709 1421 1734 1591
cat_boundaries=0 1 2 3 4 5 6 7 8 9 10
cat_threshold=4 22272 15386 48 192 31768 2 6160 352 112
is_linear=0
shrinkage=0.05


Tree=20
num_leaves=31
num_cat=10
split_feature=7 6 4 10 10 7 10 6 12 11 11 11 4 1 13 10 12 6 12 9 11 11 4 9 12 12 11 2 3 10
split_gain=973.557 336.885 272.847 166.034 160.688 115.771 110.154 89.8097 78.5502 49.6359 52.9878 45.0171 40.3424 39.713 36.1562 33.0845 32.5189 31.1198 28.4932 26.2863 25.2669 24.3254 24.1162 23.8001 22.7588 21.1213 20.9037 20.3791 20.1496 19.1442
threshold=0 1 12.500000000000002 7073.5000000000009 5036.5000000000009 2 7565.5000000000009 3 44.500000000000007 1789.0000000000002 2001.5000000000002 1521.5000000000002 9.5000000000000018 4 5 5036.5000000000009 31.500000000000004 6 37.500000000000007 7 2252.0000000000005 1834.5000000000002 6.5000000000000009 8 32.500000000000007 43.500000000000007 1789.0000000000002 23801.000000000004 9 3120.0000000000005
decision_type=1 9 2 2 2 1 2 9 2 2 2 2 2 9 9 2 2 9 2 1 2 2 2 1 2 2 2 2 9 2
left_child=2 3 4 5 7 -2 14 22 12 11 -11 13 -7 -9 -3 21 -14 -15 23 -10 25 24 -1 -19 -4 27 -24 -16 -20 -26
right_child=1 6 15 -5 -6 8 -8 9 19 10 -12 -13 16 17 20 -17 -18 18 28 -21 -22 -23 26 -25 29 -27 -28 -29 -30 -31
leaf_value=-0.023926146693205145 -0.035686522796647961 0.033003430187090468 0.022966492475960134 0.069608401720355761 0.068695210866582673 -0.026472033508597226 0.066034649343127291 0.049891559103502618 0.036531106405319688 0.074254315245234223 -0.022280536287463279 -0.073133794902834379 -0.03260487675620851 0.036364622567713757 0.070110812017714852 0.069180565076977049 0.011932424056822304 -0.023820756710995251 -0.0092707152098331462 0.0091224549422016538 0.053794581698274217 0.068533702170656505 0.006829516534491039 0.027268257646353163 0.050294197211891517 -0.023338761582840796 0.064309801797747743 -0.048678518181605367 0.023388042028182364 -0.013871633642764482
leaf_weight=63.799112007021904 150.97996676713228 12.649919763207434 86.567664951086044 104.30553025007248 213.22654150426388 132.08283541351557 25.353500351309776 181.89282327890396 257.99622267484665 99.112456455826759 16.595140144228935 11.245773911476133 47.361979581415653 408.6380427479744 3.637291617691516 274.38135772943497 304.41485770046711 65.326596483588219 49.494298473000526 132.35302568972111 6.7565208971500388 158.05521003901958 449.61923259496689 35.01506420224905 1077.989165648818 107.38309504836798 16.393787816166878 490.61225667595863 966.4722994863987 11.751062065362929
leaf_count=362 1231 85 197 161 336 1006 40 347 806 146 50 54 307 847 26 432 1481 244 202 460 15 246 1453 87 1917 694 27 4973 2365 35
internal_value=0 -0.00706012 0.0371228 0.00942495 0.0271247 0.00339365 -0.0355706 0.0233745 0.0104319 0.0285551 0.060409 0.026576 -0.00291061 0.027233 -0.0402913 0.0533681 0.00593608 0.0240455 0.0192531 0.0272378 -0.0416728 0.0501167 0.0048137 -0.00599282 0.0476421 -0.0434376 0.00885161 -0.0478043 0.021936 0.0496023
internal_weight=0 1775.89 4185.58 1129.49 2576.83 1025.19 646.393 2363.6 874.209 1833.79 115.708 1718.08 483.86 1706.84 621.039 1608.74 351.777 1524.95 1116.31 390.349 608.389 1334.36 529.812 100.342 1176.31 601.633 466.013 494.25 1015.97 1089.74
internal_count=20632 11285 9347 5452 6520 5291 5833 6184 4060 4342 196 4146 2794 4092 5793 2827 1788 3745 2898 1266 5708 2395 1842 331 2149 5693 1480 4999 2567 1952
cat_boundaries=0 1 2 3 4 5 7 8 9 10 11
cat_threshold=33 31768 8 481 34 21504512 9 9232 2 2 98
is_linear=0
shrinkage=0.05


Tree=21
num_leaves=31
num_cat=6
split_feature=5 6 6 0 10 10 10 4 0 12 12 10 11 10 0 4 0 6 6 13 0 0 12 10 11 11 0 10 11 4
split_gain=880.127 300.566 265.009 190.103 161.628 99.5486 98.6686 81.0067 53.7254 48.756 45.1977 43.7674 39.6064 38.0363 35.1926 38.3334 33.8924 31.0782 30.3089 29.5461 27.3551 26.3945 26.3569 26.0513 25.6693 23.3697 22.2898 21.8381 20.8943 20.7262
threshold=0 1 2 27.500000000000004 5036.5000000000009 7792.0000000000009 7364.0000000000009 9.5000000000000018 30.500000000000004 44.500000000000007 37.500000000000007 7792.0000000000009 1789.0000000000002 5036.5000000000009 47.500000000000007 14.500000000000002 27.500000000000004 3 4 5 35.500000000000007 58.500000000000007 34.500000000000007 3120.0000000000005 2429.5000000000005 2252.0000000000005 44.500000000000007 754.00000000000011 1789.0000000000002 9.5000000000000018
decision_type=9 9 9 2 2 2 2 2 2 2 2 2 2 2 2 2 2 9 9 9 2 2 2 2 2 2 2 2 2 2
left_child=2 3 13 11 7 19 9 8 -4 14 21 -2 18 16 15 29 -1 -12 26 -3 -20 -10 -16 -19 27 -21 -9 -11 -18 -5
right_child=1 5 4 6 -6 -7 -8 12 10 24 17 -13 -14 -15 22 -17 28 23 20 25 -22 -23 -24 -25 -26 -27 -28 -29 -30 -31
leaf_value=0.0080641513895732334 -0.041663591871640517 0.029870107773442262 -0.016361801902275937 -0.034752273350284711 0.067110007335301688 0.066199474531965979 0.068327134447556989 0.015495035851063136 0.0032836123066945742 0.026568102575448772 -0.0025918639854187503 0.065719341867418721 0.065472688890211156 0.068005069942161142 -0.023159128564531135 0.056756426558321305 0.046954733549112088 0.025046945612671279 0.017469295100624376 -0.042482594229694581 0.03645988554197558 -0.049642202299865157 0.033301425806007805 -0.035336065187761626 0.1094198423182127 0.050681919311685253 -0.034654005890277555 -0.038640498850890943 0.06633077321542323 -0.0043809674050524078
leaf_weight=52.127072289586067 185.32549586892128 11.6632147654891 150.67730313539505 76.217168584465981 205.78941111266613 23.162503570318222 88.63397553563118 80.416995853185654 65.307180270552635 346.71085424721241 143.12674298882484 10.001057386398314 75.120787560939789 272.64969791471958 25.373885437846184 21.547595381736755 1241.7240999341011 725.86635696142912 265.8827175796032 571.6698392778635 661.18452653288841 36.848439835011959 111.50370705127716 18.313084781169891 9.0484858155250532 6.8114067167043677 30.584641739726067 13.333185732364653 156.69261990487576 213.60422796010971
leaf_count=139 1775 77 629 596 335 37 141 232 243 1027 514 16 121 442 146 47 2297 1888 678 5634 1361 184 471 65 12 15 106 53 251 1100
internal_value=0 -0.00714247 0.0353942 0.00849674 0.0245931 -0.0349112 0.0182196 0.0208193 0.0114518 0.0127859 0.0156873 -0.0361654 0.0304135 0.0505773 0.00170452 -0.0075844 0.0476502 0.0193132 0.0278765 -0.0394712 0.0306824 -0.0158072 0.022835 0.0232486 0.0262436 -0.0406824 0.00153869 0.0241533 0.0491258 -0.012368
internal_weight=0 1714.61 4182.31 1101.3 2459.12 613.307 905.973 2253.33 1140.14 817.339 989.462 195.327 1113.19 1723.19 448.247 311.369 1450.54 887.306 1038.07 590.144 927.067 102.156 136.878 744.179 369.093 578.481 111.002 360.044 1398.42 289.821
internal_count=20632 11147 9485 5384 6356 5763 3593 6021 3523 3452 2894 1791 2498 3129 2360 1743 2687 2467 2377 5726 2039 427 617 1953 1092 5649 338 1080 2548 1696
cat_boundaries=0 1 2 3 4 5 7
cat_threshold=4 31768 9232 2337 352 20980224 9
is_linear=0
shrinkage=0.05


Tree=22
num_leaves=31
num_cat=8
split_feature=7 0 4 10 10 4 0 10 9 1 12 12 4 12 10 4 7 11 9 4 12 0 9 11 0 4 1 12 1 12
split_gain=808.479 282.04 251.718 164.748 149.584 137.187 69.7219 68.0705 65.7764 52.297 37.3105 35.647 35.5396 35.4456 33.6592 32.4199 29.0015 28.8395 27.4176 25.4572 24.8765 26.5985 27.9294 23.8242 25.2046 22.1371 22.1106 21.4216 21.3139 21.1631
threshold=0 29.500000000000004 12.500000000000002 7073.5000000000009 5036.5000000000009 9.5000000000000018 35.500000000000007 7792.0000000000009 1 2 44.500000000000007 41.500000000000007 7.5000000000000009 43.500000000000007 5036.5000000000009 5.5000000000000009 3 1789.0000000000002 4 13.500000000000002 48.500000000000007 24.500000000000004 5 1834.5000000000002 25.500000000000004 13.500000000000002 6 31.500000000000004 7 16.500000000000004
decision_type=1 2 2 2 2 2 2 2 1 9 2 2 2 2 2 2 1 2 1 2 2 2 1 2 2 2 9 2 9 2
left_child=2 7 4 5 6 11 12 10 19 13 -2 -3 -1 15 23 -8 25 29 -13 28 21 -14 -23 24 -4 26 -10 -26 -7 -17
right_child=1 3 14 -5 -6 8 9 -9 16 -11 -12 18 20 -15 -16 17 -18 -19 -20 -21 -22 22 -24 -25 27 -27 -28 -29 -30 -31
leaf_value=-0.034845678861548504 -0.048308886091269758 -0.034160211297316105 -0.018532062769260515 0.066518775858890419 0.066094119258627973 0.028488384398789864 -0.016214898314039539 0.058205178014001671 0.0082828055778051014 0.0071072414877923666 -0.015573114551634857 0.014634591763069733 -0.039709069106081518 0.041275676857310928 0.066655454316536605 -0.033712958897562734 -0.018464839973894275 0.062296821707124833 -0.039383193636156 0.050634597728888613 0.026772745893173178 0.0010476050905450398 0.036116178902253535 0.065642565452510057 0.020381448007193742 0.033967632153564353 -0.037107146010411936 0.047189331077054295 -0.0035608918473050942 0.025632003799090655
leaf_weight=47.382841169834137 387.40905258059502 256.93358691036701 15.684762001037596 104.75882621109486 200.32245191931725 195.6890536993742 45.995417311787605 17.928452536463737 132.1201119273901 319.42921057343483 112.26442784070969 82.665492512285709 32.515462562441826 498.66780988872051 257.447131767869 15.3125903904438 141.66177203506231 53.852456405758858 32.815795965492725 95.804098397493362 162.66495591402054 313.75731693953276 69.319988027215004 149.4075264185667 80.205830663442612 67.551700480282307 23.075226776301861 1051.013483017683 73.893548086285591 793.87852482497692
leaf_count=243 4290 2342 46 172 336 798 225 31 680 938 722 351 159 1032 432 58 828 90 199 212 406 972 174 246 184 184 152 1919 324 1887
internal_value=0 -0.00660403 0.0341909 0.0065991 0.0246175 0.000904075 0.021086 -0.0375193 0.0135052 0.0262664 -0.040954 -0.0237894 0.00678506 0.0303478 0.0501419 0.024687 -0.00152579 0.0268669 -0.000715398 0.0284959 0.0101963 0.00370822 0.00739346 0.0468623 0.0444158 0.00964308 -0.000323296 0.0452886 0.0206282 0.024509
internal_weight=0 1724.57 4106.86 1206.97 2553.1 1102.21 2352.78 517.602 729.796 1727.14 499.673 372.415 625.641 1407.71 1553.76 909.039 364.409 863.044 115.481 365.387 578.258 415.593 383.077 1296.31 1146.9 222.747 155.195 1131.22 269.583 809.191
internal_count=20632 11285 9347 6242 6520 6070 6184 5043 3178 4230 5012 2892 1954 3292 2827 2260 1844 2035 550 1334 1711 1305 1146 2395 2149 1016 832 2103 1122 1945
cat_boundaries=0 1 2 3 4 5 6 7 8
cat_threshold=33 2 54 6 2 2 84 18
is_linear=0
shrinkage=0.05


Tree=23
num_leaves=31
num_cat=10
split_feature=7 6 6 0 10 10 10 11 3 12 0 11 12 10 10 11 0 13 0 1 6 7 11 6 12 0 11 6 12 12
split_gain=736.754 279.537 236.762 163.184 147.117 89.5038 89.1003 67.5213 51.7626 44.4484 45.0322 43.8496 40.1567 37.8748 37.4839 36.179 34.3533 32.6337 31.0587 30.0945 26.8139 27.5005 22.8442 22.3442 27.2594 23.6819 22.0402 21.7868 21.5937 20.7784
threshold=0 1 2 27.500000000000004 5036.5000000000009 7073.5000000000009 7565.5000000000009 1789.0000000000002 3 37.500000000000007 36.500000000000007 2001.5000000000002 42.500000000000007 5036.5000000000009 7792.0000000000009 2139.0000000000005 27.500000000000004 4 32.500000000000007 5 6 7 2429.5000000000005 8 69.000000000000014 33.500000000000007 2252.0000000000005 9 48.500000000000007 40.500000000000007
decision_type=1 9 9 2 2 2 2 2 9 2 2 2 2 2 2 2 2 9 2 9 9 1 2 9 2 2 2 9 2 2
left_child=2 3 13 14 7 12 17 8 19 27 28 -9 18 16 -2 -13 -1 -3 -5 -4 21 -20 -14 24 -21 -25 29 -10 -11 -19
right_child=1 6 4 5 -6 -7 -8 11 9 10 -12 15 22 -15 -16 -17 -18 26 20 23 -22 -23 -24 25 -26 -27 -28 -29 -30 -31
leaf_value=0.0037755964436628252 -0.039053155516063594 0.035595065769360994 -0.0021181697186237218 -0.029255019815202867 0.064864956210717778 0.065901288055937035 0.061569219737780116 0.071039728801981061 -0.039640249858492821 -0.01223026042698757 0.019506302852979759 -0.097418462746829249 0.02211065731617853 0.065594310038582335 0.063025962969743957 0.035445126757164457 0.046065706348643133 -0.046104719093656051 0.027742275184129958 0.0057572858082814635 -0.011556613158669717 -0.0066934187997853339 0.10260871430413472 0.015420743999542123 0.10041072934269109 0.036965659625380676 0.049070877180178774 0.004674619716065081 0.018461575306595753 -0.0218122619320721
leaf_weight=49.784336656332016 178.23091330379248 10.166407272219656 98.594325318932533 67.530955664813519 190.11146372556686 85.74894854426384 23.280659809708595 94.810099899768829 55.186743646860123 212.96071748435497 683.14732411503792 7.279274687170985 379.835190564394 252.66857215762138 9.4710175991058332 17.302646547555923 1355.7535198777914 444.421781077981 169.91019077599049 161.07941621541977 120.10200690478086 85.782547511160374 9.0227735638618451 162.93759040534496 7.9834841191768637 587.20294295251369 6.8310002088546744 51.685000598430634 78.409195020794868 109.76725720614195
leaf_count=132 1795 60 270 508 330 145 40 148 262 832 1832 31 1140 438 16 37 2533 4963 638 448 785 413 12 416 11 1194 15 205 228 755
internal_value=0 -0.00638286 0.0328135 0.00849962 0.0225585 0.0172627 -0.0337451 0.0190349 0.0169546 0.00904628 0.0124869 0.0556104 0.012251 0.0474853 -0.0339025 -0.00389885 0.0445678 -0.0382208 0.00196435 0.0250224 0.00757453 0.0163723 0.0239785 0.027925 0.00965587 0.0318612 -0.039489 -0.0214806 -0.00397092 -0.0412932
internal_weight=0 1700.1 4066.9 1105.63 2408.69 917.933 594.467 2218.58 2099.19 1081.39 974.517 119.392 832.184 1658.21 187.702 24.5819 1405.54 571.186 443.326 1017.8 375.795 255.693 388.858 919.203 169.063 750.141 561.02 106.872 291.37 554.189
internal_count=20632 11285 9347 5452 6244 3641 5833 5914 5698 3359 2892 216 3496 3103 1811 68 2665 5793 2344 2339 1836 1051 1152 2069 459 1610 5733 467 1060 5718
cat_boundaries=0 1 2 3 4 6 7 8 9 10 11
cat_threshold=33 31768 9232 55168 21496320 9 64 11280 2 16832 4137
is_linear=0
shrinkage=0.05


Tree=24
num_leaves=31
num_cat=10
split_feature=7 6 4 10 10 10 12 6 7 11 11 10 9 11 12 1 10 2 6 12 3 11 1 9 11 12 10 4 12 2
split_gain=670.682 260.008 233.276 139.86 120.648 89.2905 87.3878 68.6602 56.9818 43.4166 48.8722 43.3711 41.112 40.9153 38.7203 35.9067 34.3349 32.0217 28.4541 27.7612 26.1978 24.3404 24.2663 33.903 24.046 22.0736 21.6506 20.9765 19.928 19.8953
threshold=0 1 12.500000000000002 5036.5000000000009 4668.5000000000009 7565.5000000000009 34.500000000000007 2 3 1789.0000000000002 2001.5000000000002 754.00000000000011 4 1521.5000000000002 40.500000000000007 5 5036.5000000000009 23801.000000000004 6 45.500000000000007 7 1834.5000000000002 8 9 2252.0000000000005 43.500000000000007 3120.0000000000005 3.5000000000000004 31.500000000000004 312219.00000000006
decision_type=1 9 2 2 2 2 2 9 1 2 2 2 1 2 2 9 2 2 9 2 9 2 9 1 2 2 2 2 2 2
left_child=2 4 3 7 6 14 -2 27 11 13 -11 12 18 15 17 -9 21 -3 19 -8 -17 26 25 -24 -19 -22 28 -1 -4 -16
right_child=1 5 16 -5 -6 -7 8 9 -10 10 -12 -13 -14 -15 29 20 -18 24 -20 -21 22 -23 23 -25 -26 -27 -28 -29 -30 -31
leaf_value=-0.052176759245447873 -0.040433795800883007 0.098706568708642722 0.018049480952829228 0.063877461871148941 0.059896069799128794 0.060936485481221783 -0.02007237004456482 0.043791604019214163 -0.021425083180793295 0.068765008655661028 -0.025175379917507068 -0.06753122128414861 0.0024322027474503673 -0.073456794692346977 -0.020391536265964336 -0.01484293395977168 0.064519886621440342 -0.045087226904876369 0.033799987476495749 0.03740459435482052 0.018528092890448083 0.06342757994601321 -0.0026164724908744929 0.057928121204571387 0.05079219377005835 0.032298838177666107 -0.020268697144266341 0.0047003096534430754 0.044079503159601623 0.032639971792693394
leaf_weight=16.73869301378727 100.74215815961361 3.9811546057462683 79.224257498979568 187.36386984586716 105.76257722079754 24.983470514416695 58.593643046915531 178.77080115675926 124.21229698508978 91.216926455497742 16.322635397315025 15.777860440313814 302.32413927465677 11.210696704685686 121.2558091878891 50.185138151049614 240.48297280073166 454.56159752607346 302.59575967490673 32.750843599438667 781.18942087888718 141.60448256134987 191.05191005766392 26.305811867117882 6.6347575187683097 463.76172032952309 14.04340063035488 513.79379840195179 1022.7199780195951 20.705769658088684
leaf_count=110 881 29 183 336 194 44 430 347 914 146 50 98 1423 54 798 202 432 5227 1022 103 1953 246 533 48 14 1009 42 1732 1924 108
internal_value=0 -0.00615413 0.0314971 0.0223102 0.0091857 -0.0312079 0.00355985 0.0189827 0.00885969 0.0235648 0.0545065 0.0142436 0.0163012 0.0217487 -0.0355136 0.0223798 0.0472098 -0.0424891 0.0269448 0.000482698 0.019431 0.0438997 0.0207001 0.00450376 -0.0437079 0.0234694 0.0414219 0.00285204 0.0422081 -0.0126566
internal_weight=0 1674.88 4025.99 2527.91 1042.76 632.123 936.997 2340.55 836.255 1810.02 107.54 712.042 696.264 1702.48 607.139 1691.26 1498.08 465.178 393.94 91.3445 1512.49 1257.59 1462.31 217.358 461.196 1244.95 1115.99 530.532 1101.94 141.962
internal_count=20632 11285 9347 6520 5065 6220 4871 6184 3990 4342 196 3076 2978 4146 6176 4092 2827 5270 1555 533 3745 2395 3543 581 5241 2962 2149 1842 2107 906
cat_boundaries=0 1 2 3 4 5 6 7 8 9 10
cat_threshold=33 15384 481 18 2 34 8 34 20 2
is_linear=0
shrinkage=0.05


Tree=25
num_leaves=31
num_cat=7
split_feature=7 10 6 6 10 0 11 4 9 0 12 0 12 0 11 11 10 10 10 11 7 11 12 9 0 10 0 10 13 0
split_gain=703.379 246.364 232.62 204.762 134.178 98.3369 74.9318 63.2882 58.5624 46.5342 41.2652 40.3559 37.5367 33.7884 33.2373 35.5932 32.04 26.4992 26.4073 25.4162 25.5512 24.9939 22.7002 26.6197 21.5947 21.5095 21.3253 20.1214 19.3122 20.7846
threshold=0 4668.5000000000009 1 2 5036.5000000000009 31.500000000000004 1789.0000000000002 9.5000000000000018 3 26.500000000000004 40.500000000000007 31.500000000000004 42.500000000000007 66.500000000000014 2001.5000000000002 2345.5000000000005 5036.5000000000009 754.00000000000011 3120.0000000000005 2234.5000000000005 4 1789.0000000000002 40.500000000000007 5 34.500000000000007 4243.5000000000009 68.500000000000014 2985.0000000000005 6 47.500000000000007
decision_type=1 2 9 9 2 2 2 2 1 2 2 2 2 2 2 2 2 2 2 2 1 2 2 1 2 2 2 2 9 2
left_child=2 3 9 5 6 12 7 11 17 -1 28 -4 -2 22 -8 -16 21 -7 27 20 -10 26 23 -13 -12 -20 -11 -9 29 -5
right_child=1 -3 4 10 -6 8 14 18 19 16 24 13 -14 -15 15 -17 -18 -19 25 -21 -22 -23 -24 -25 -26 -27 -28 -29 -30 -31
leaf_value=-0.010351303070038856 -0.040298071459127241 0.054803801868398255 -0.015754340710134204 -0.012255701324389518 0.061984789954040435 0.033257084699459011 0.068298951199325691 0.024006653171097569 0.0086862138794555517 0.041996829042374624 -0.031317591834856016 0.0028040398739987982 0.0020647556113278557 -0.035740392810032155 -0.068118055783368159 0.052915242802450801 0.063577798092995103 -0.07050849228284177 -0.083071083614131583 0.088383137445285476 -0.021319778778735393 0.062649902588771386 0.023704446201537735 0.035077851263807275 0.0025880348764263598 0.019963710424252962 -0.011390829670103554 0.080574137603197232 -0.041642482342954854 0.12842251904814264
leaf_weight=36.940914288163185 139.89471819996834 141.20876626670361 172.23986581712961 7.1328346952795965 179.01727968454361 274.16990637034178 97.222411677241325 984.35770761966705 164.44374776631594 1219.0538969933987 89.391690164804459 512.29777270555496 83.503336787223816 37.724124982953072 10.213456079363825 14.988506659865378 232.5975189357996 6.2939499616622916 10.36777123808861 7.6813985854387274 110.44691027700901 152.18374992907047 302.15913201868534 72.995110377669334 98.938842587172985 9.9038980752229673 18.996253207325935 15.975526496767996 525.05064535886049 4.155095249414444
leaf_count=106 1433 277 700 74 335 804 159 2269 668 2343 666 1604 404 168 40 28 433 34 44 13 589 270 759 198 471 23 53 23 5961 23
internal_value=0 -0.008304 0.0303495 -0.0142562 0.0202458 0.00356025 0.0170011 0.0148028 0.0147425 0.0448684 -0.0331825 0.00646767 -0.0244634 0.0106047 0.0550347 0.00386477 0.0464018 0.0309285 0.0237651 -0.00132263 -0.00382933 0.0435282 0.0125748 0.00682909 -0.0135054 -0.0327326 0.0411777 0.02491 -0.0407106 0.0209598
internal_weight=0 1652.31 4079.23 1511.1 2419.46 786.434 2240.45 2118.02 563.036 1659.77 724.669 1097.42 223.398 925.176 122.424 25.202 1622.83 280.464 1020.6 282.572 274.891 1390.23 887.452 585.293 188.331 20.2717 1238.05 1000.33 536.339 11.2879
internal_count=20972 11417 9555 11140 6350 3945 6015 5788 2108 3205 7195 3429 1837 2729 227 68 3099 838 2359 1270 1257 2666 2561 1802 1137 67 2396 2292 6058 97
cat_boundaries=0 1 2 3 4 5 6 8
cat_threshold=33 9232 15376 2 2 2 21504514 2
is_linear=0
shrinkage=0.05


Tree=26
num_leaves=31
num_cat=5
split_feature=7 6 4 10 10 10 0 11 4 9 1 12 11 11 10 10 10 10 10 12 10 9 12 0 4 0 12 10 0 11
split_gain=642.099 227.521 225.494 123.543 111.643 102.525 89.5951 70.8454 60.0037 52.4801 47.0423 42.8186 37.6633 37.1274 36.0917 41.4753 86.7295 55.0314 57.436 35.5688 34.5023 31.2872 81.7824 42.3398 33.6618 29.8432 24.6756 24.1493 23.2716 22.838
threshold=0 1 12.500000000000002 5036.5000000000009 7792.0000000000009 4668.5000000000009 31.500000000000004 1789.0000000000002 7.5000000000000009 2 3 40.500000000000007 2001.5000000000002 1521.5000000000002 4462.0000000000009 4243.5000000000009 3120.0000000000005 2985.0000000000005 1162.0000000000002 42.500000000000007 5036.5000000000009 4 34.500000000000007 43.500000000000007 9.5000000000000018 25.500000000000004 31.500000000000004 754.00000000000011 34.500000000000007 2234.5000000000005
decision_type=1 9 2 2 2 2 2 2 2 1 9 2 2 2 2 2 2 2 2 2 2 1 2 2 2 2 2 2 2 2
left_child=2 5 3 7 11 6 19 8 -1 27 -10 -3 -9 14 15 16 17 18 21 -2 25 22 -12 24 -24 -4 -27 -8 -13 -11
right_child=1 4 20 -5 -6 -7 9 12 10 29 13 28 -14 -15 -16 -17 -18 -19 -20 -21 -22 -23 23 -25 -26 26 -28 -29 -30 -31
leaf_value=-0.010287334043949041 -0.039505672805008794 -0.039988913173187993 -0.024929236233647442 0.061099030974712004 0.060610192488308394 0.058737389357919514 0.031397104113390494 0.066867882446249707 0.040882224465566636 -0.0036718757818457754 -0.037453165175749391 -0.031056122586194713 -0.0050120761572704292 -0.073137141781698792 -0.092382404141851476 0.085645541870876751 -0.081581942983631861 0.090809012047623483 -0.087174248588538325 0.0019597833176347346 0.062714097016850878 0.034494453937135156 -0.0012414679078599261 0.025989243265355851 0.019046548189117204 0.017176293486664846 0.044402822872446436 -0.069211593732177279 0.0039615063408387037 0.083525230368380138
leaf_weight=208.4567444846034 135.67367757856846 526.11670380085707 16.670055285096169 172.57338544726372 33.608367651700974 93.803414538502693 275.84641665220261 102.13008388876915 197.43764998018742 274.2605544552207 73.743800088763237 88.739603884518147 22.182124331593513 11.819015815854071 7.6824882030487052 21.261914744973183 22.761839866638184 24.662567272782326 13.490261256694792 83.575354546308517 226.9560956209898 210.10022437572479 408.14975179731846 653.86840818822384 409.67294085025787 89.751619666814804 1143.3469893485308 6.0963068902492514 101.95721492171288 7.7205967456102362
leaf_count=916 1433 6083 50 334 62 179 804 170 388 1257 296 671 63 57 32 33 99 33 61 404 438 491 1249 1460 982 208 2195 34 477 13
internal_value=0 -0.00803928 0.029148 0.0202449 -0.0280816 0.00923399 0.0034227 0.0172917 0.0152731 0.0139676 0.0178663 -0.0326317 0.0540417 0.015118 0.0157652 0.0162173 0.0154046 0.0166354 0.0156013 -0.0236995 0.0447796 0.016391 0.0139299 0.0165046 0.00892143 0.0415228 0.0424211 0.0292217 -0.0123337 -0.00128443
internal_weight=0 1627.4 4036.72 2559.99 750.422 876.976 783.173 2387.42 2263.11 563.924 2054.65 716.814 124.312 1857.21 1845.39 1837.71 1816.45 1793.69 1769.03 219.249 1476.72 1755.54 1545.43 1471.69 817.823 1249.77 1233.1 281.943 190.697 281.981
internal_count=20972 11417 9555 6664 7293 4124 3945 6330 6097 2108 5181 7231 233 4793 4736 4704 4671 4572 4539 1837 2891 4478 3987 3691 2231 2453 2403 838 1148 1270
cat_boundaries=0 1 2 3 4 5
cat_threshold=33 15376 2 34 2
is_linear=0
shrinkage=0.05


Tree=27
num_leaves=31
num_cat=8
split_feature=7 4 6 10 10 10 0 11 4 9 1 12 11 10 11 12 12 9 1 0 11 0 12 0 7 0 10 13 0 11
split_gain=586.268 213.557 210.7 118.934 103.796 95.8388 81.6788 66.7238 54.3447 47.0145 43.35 41.4623 35.7537 35.1702 34.214 33.6826 32.102 54.4097 32.1603 35.3986 28.1594 28.7487 27.091 24.9843 22.5972 21.5682 18.9663 18.6815 17.3172 16.8409
threshold=0 12.500000000000002 1 5036.5000000000009 7792.0000000000009 4668.5000000000009 31.500000000000004 1789.0000000000002 7.5000000000000009 2 3 40.500000000000007 2001.5000000000002 5036.5000000000009 1521.5000000000002 42.500000000000007 34.500000000000007 4 5 35.500000000000007 1789.0000000000002 25.500000000000004 40.500000000000007 66.500000000000014 6 34.500000000000007 3120.0000000000005 7 47.500000000000007 2345.5000000000005
decision_type=1 2 9 2 2 2 2 2 2 1 9 2 2 2 2 2 2 1 9 2 2 2 2 2 1 2 2 9 2 2
left_child=1 3 5 7 11 6 15 8 -1 -8 -10 27 -9 20 16 -2 17 -12 -18 -20 21 -3 -21 26 -11 -13 -23 28 -4 -14
right_child=2 13 4 -5 -6 -7 9 12 10 24 14 25 29 -15 -16 -17 18 -19 19 22 -22 23 -24 -25 -26 -27 -28 -29 -30 -31
leaf_value=-0.0098156987152402189 -0.038716823498726023 -0.02936472444394575 -0.010100549733270152 0.060219909767233952 0.059573836539399717 0.057420423562774041 0.027629188906476948 0.065450714346732691 0.039196674022406328 0.01019401546593918 -0.035159870620484222 -0.030125929879970217 -0.046187743950155839 0.061898147940399488 -0.071559238409639889 0.0018602337550703727 -0.0039902479937941795 0.029280495238055877 0.0078060062302379848 0.018188103411297157 0.061128434946976763 0.04027184761176001 0.034739796488546422 -0.012169467423144526 -0.017675172521032501 0.0037564050455338644 -0.02298907426615511 -0.040209221595885247 0.1170553799922258 0.041043411293730549
leaf_weight=207.5724096223712 131.61987552791834 15.885375231504439 6.8471706435084325 166.49235926568508 32.511252149939537 91.222961142659187 283.22881144285202 99.198892861604691 196.09595109522343 168.9193112179637 79.059121832251549 86.951763950288296 11.650484830141069 218.66069352626801 11.484138458967207 83.643670313060284 170.41209740936756 55.930493861436844 471.5498840212822 673.56481601297855 141.35386174917221 1035.8085286766291 390.56728422641754 23.884536266326904 112.66110513359308 102.14300563931465 11.985302999615667 498.56010823696852 4.3970837220549583 10.537397891283034
leaf_count=916 1433 49 74 334 62 179 838 170 388 675 322 671 42 438 57 404 484 145 1401 1584 267 2036 800 65 595 477 36 5986 23 21
internal_value=0 0.0280199 -0.00776538 0.0193664 -0.0273833 0.00882676 0.00325729 0.0165056 0.0145628 0.0132456 0.0170328 -0.0318202 0.0526171 0.043422 0.0143975 -0.02295 0.0150119 -0.00846018 0.016869 0.0190854 0.0401345 0.0374059 0.0242631 0.0383956 -0.00122221 -0.0118238 0.0395482 -0.0392371 0.0209724 -0.0047602
internal_weight=0 3991.69 1602.71 2544.12 731.41 871.296 780.073 2377.62 2256.24 564.809 2048.66 698.899 121.387 1447.58 1852.57 215.264 1841.08 134.99 1706.09 1535.68 1228.92 1087.56 1064.13 1071.68 281.58 189.095 1047.79 509.804 11.2443 22.1879
internal_count=20972 9555 11417 6664 7293 4124 3945 6330 6097 2108 5181 7231 233 2891 4793 1837 4736 467 4269 3785 2453 2186 2384 2137 1270 1148 2072 6083 97 63
cat_boundaries=0 1 2 3 4 5 6 7 9
cat_threshold=33 15376 2 34 2 64 2 21504514 2
is_linear=0
shrinkage=0.05


Tree=28
num_leaves=31
num_cat=8
split_feature=7 6 10 6 10 0 11 4 11 9 0 12 0 10 0 11 11 10 11 0 0 10 12 6 6 7 7 0 10 4
split_gain=535.887 208.069 195.312 166.34 120.749 76.9399 63.8061 48.5733 44.6175 43.2493 41.0077 37.7173 33.9819 33.0141 29.679 29.3287 30.4996 26.6536 25.0984 24.4993 22.2939 22.0622 21.6785 20.6657 19.6494 19.2689 19.1408 18.5319 18.4063 17.8711
threshold=0 1 4668.5000000000009 2 5036.5000000000009 24.500000000000004 1789.0000000000002 9.5000000000000018 2218.5000000000005 3 26.500000000000004 40.500000000000007 31.500000000000004 5036.5000000000009 61.500000000000007 2001.5000000000002 2345.5000000000005 1.0000000180025095e-35 1789.0000000000002 41.500000000000007 46.500000000000007 3120.0000000000005 34.500000000000007 4 5 6 7 68.500000000000014 4243.5000000000009 9.5000000000000018
decision_type=1 9 2 9 2 2 2 2 2 1 2 2 2 2 2 2 2 2 2 2 2 2 2 9 9 1 1 2 2 2
left_child=1 10 3 5 6 -2 7 12 9 17 -1 -5 -3 18 20 -8 -17 19 27 26 24 23 -21 -9 -14 29 -7 -12 -23 -11
right_child=2 4 -4 11 -6 8 15 21 -10 25 13 -13 14 -15 -16 16 -18 -19 -20 22 -22 28 -24 -25 -26 -27 -28 -29 -30 -31
leaf_value=-0.010897952902464867 -0.044883809381120639 -0.015286336571391834 0.051026212007112881 -0.03854265625015086 0.059336728336737754 0.016923230194066739 0.064196561595122256 0.0047455838166747333 0.082236499468977528 -0.035994946180594102 0.038162001179817252 -0.011952519628717524 -0.017006043963755827 0.061134407053701094 -0.018641852873510199 -0.064489180932182644 0.048991375260339039 -0.067644138691600089 0.059827522344072119 -0.03885233225680855 0.020739329286582883 -0.079389685592867396 0.040014754050479356 0.024720873112737352 0.0091252015620570531 -0.021085989631652299 -0.017767937401242714 -0.011778199984906479 0.016934025972414658 0.0088741001029910317
leaf_weight=36.650713384151459 75.44940047711134 171.28273987025023 130.50279486179352 488.01922887563705 160.62670192122459 141.70599009096622 89.303077533841133 176.70874471962452 19.803394079208374 25.375797539949417 1171.1836782991886 183.51425094157457 79.512460485100746 208.12074296176434 88.04816722124815 10.043771445751192 14.424227297306059 8.7880385518074018 138.93519029021263 9.2691347599029523 383.54585161805153 10.040761381387712 145.27202835679054 809.5200193375349 370.53930262476206 128.81091050058603 45.847705349326134 18.875732526183128 9.8002773523330671 176.87873839586973
leaf_count=106 915 700 277 6058 335 545 159 490 34 184 2343 1137 274 433 349 40 28 55 270 45 1035 44 372 1802 1071 786 267 53 23 742
internal_value=0 0.0269361 -0.00751246 -0.0128375 0.0174046 0.00305497 0.0144394 0.0124627 0.00825268 0.00610423 0.0411099 -0.0308173 0.00516508 0.0426174 0.00896586 0.0509084 0.00240919 0.0183352 0.0397176 0.0205439 0.0118819 0.0203904 0.0352844 0.0214406 0.00433338 -0.00685884 0.0083979 0.0373699 -0.0318116 0.00309176
internal_weight=0 3947.16 1579.24 1448.73 2373.4 777.201 2212.77 2099 701.752 681.948 1573.77 671.533 1092.93 1537.12 921.646 113.771 24.468 350.883 1328.99 342.095 833.598 1006.07 154.541 986.229 450.052 331.065 187.554 1190.06 19.841 202.255
internal_count=20972 9555 11417 11140 6350 3945 6015 5788 3030 2996 3205 7195 3429 3099 2729 227 68 1284 2666 1229 2380 2359 417 2292 1345 1712 812 2396 67 926
cat_boundaries=0 1 2 3 4 5 6 7 8
cat_threshold=33 9232 15376 2 16736 16417 2 2
is_linear=0
shrinkage=0.05


Tree=29
num_leaves=31
num_cat=7
split_feature=7 4 6 10 10 0 11 10 1 11 12 4 10 11 11 3 12 9 1 0 11 0 12 0 12 4 11 10 12 7
split_gain=489.329 196.135 182.069 110.882 106.829 91.4255 59.8098 59.1165 49.0097 48.3155 42.4858 42.1588 35.8067 32.6727 31.3457 29.22 28.7795 48.9137 29.2875 30.5268 27.7394 25.4516 24.763 23.3117 23.1598 22.5647 22.4301 22.0413 21.8814 20.0526
threshold=0 12.500000000000002 1 5036.5000000000009 4668.5000000000009 24.500000000000004 1789.0000000000002 7792.0000000000009 2 2218.5000000000005 47.500000000000007 7.5000000000000009 5036.5000000000009 2001.5000000000002 1521.5000000000002 3 34.500000000000007 4 5 35.500000000000007 1789.0000000000002 25.500000000000004 40.500000000000007 34.500000000000007 31.500000000000004 9.5000000000000018 2218.5000000000005 1.0000000180025095e-35 41.500000000000007 6
decision_type=1 2 9 2 2 2 2 2 9 2 2 2 2 2 2 9 2 1 9 2 2 2 2 2 2 2 2 2 2 1
left_child=1 3 4 6 5 -2 8 23 -1 10 15 -10 20 -8 16 -7 17 -13 -18 -20 21 -3 -21 26 -23 -25 -4 29 -27 -12
right_child=2 12 7 -5 -6 9 13 -9 11 -11 27 14 -14 -15 -16 -17 18 -19 19 22 -22 24 -24 25 -26 28 -28 -29 -30 -31
